{"learner":{"attributes":{},"feature_names":["f_0","f_1","f_2","f_3","f_4","f_5","f_6","f_7","f_8","f_9","f_10","f_11","f_12","f_13","f_14","f_15","f_16","f_17","f_18","f_19","f_20","f_21","f_22","f_23","f_24","f_25","f_26","f_27","f_28","f_29","f_30","f_31","f_32","f_33","f_34","f_35","f_36","f_37","f_38","f_39","f_40","f_41","f_42","f_43","f_44","f_45","f_46","f_47","f_48","f_49","f_50"],"feature_types":["float","float","float","float","float","float","float","float","float","float","float","float","float","float","float","float","float","float","float","float","float","float","float","float","float","float","float","float","float","float","float","float","float","float","float","float","float","float","float","float","float","float","float","float","float","float","float","float","float","float","float"],"gradient_booster":{"model":{"gbtree_model_param":{"num_parallel_tree":"1","num_trees":"300"},"iteration_indptr":[0,1,2,3,4,5,6,7,8,9,10,11,12,13,14,15,16,17,18,19,20,21,22,23,24,25,26,27,28,29,30,31,32,33,34,35,36,37,38,39,40,41,42,43,44,45,46,47,48,49,50,51,52,53,54,55,56,57,58,59,60,61,62,63,64,65,66,67,68,69,70,71,72,73,74,75,76,77,78,79,80,81,82,83,84,85,86,87,88,89,90,91,92,93,94,95,96,97,98,99,100,101,102,103,104,105,106,107,108,109,110,111,112,113,114,115,116,117,118,119,120,121,122,123,124,125,126,127,128,129,130,131,132,133,134,135,136,137,138,139,140,141,142,143,144,145,146,147,148,149,150,151,152,153,154,155,156,157,158,159,160,161,162,163,164,165,166,167,168,169,170,171,172,173,174,175,176,177,178,179,180,181,182,183,184,185,186,187,188,189,190,191,192,193,194,195,196,197,198,199,200,201,202,203,204,205,206,207,208,209,210,211,212,213,214,215,216,217,218,219,220,221,222,223,224,225,226,227,228,229,230,231,232,233,234,235,236,237,238,239,240,241,242,243,244,245,246,247,248,249,250,251,252,253,254,255,256,257,258,259,260,261,262,263,264,265,266,267,268,269,270,271,272,273,274,275,276,277,278,279,280,281,282,283,284,285,286,287,288,289,290,291,292,293,294,295,296,297,298,299,300],"tree_info":[0,0,0,0,0,0,0,0,0,0,0,0,0,0,0,0,0,0,0,0,0,0,0,0,0,0,0,0,0,0,0,0,0,0,0,0,0,0,0,0,0,0,0,0,0,0,0,0,0,0,0,0,0,0,0,0,0,0,0,0,0,0,0,0,0,0,0,0,0,0,0,0,0,0,0,0,0,0,0,0,0,0,0,0,0,0,0,0,0,0,0,0,0,0,0,0,0,0,0,0,0,0,0,0,0,0,0,0,0,0,0,0,0,0,0,0,0,0,0,0,0,0,0,0,0,0,0,0,0,0,0,0,0,0,0,0,0,0,0,0,0,0,0,0,0,0,0,0,0,0,0,0,0,0,0,0,0,0,0,0,0,0,0,0,0,0,0,0,0,0,0,0,0,0,0,0,0,0,0,0,0,0,0,0,0,0,0,0,0,0,0,0,0,0,0,0,0,0,0,0,0,0,0,0,0,0,0,0,0,0,0,0,0,0,0,0,0,0,0,0,0,0,0,0,0,0,0,0,0,0,0,0,0,0,0,0,0,0,0,0,0,0,0,0,0,0,0,0,0,0,0,0,0,0,0,0,0,0,0,0,0,0,0,0,0,0,0,0,0,0,0,0,0,0,0,0,0,0,0,0,0,0,0,0,0,0,0,0,0,0,0,0,0,0,0,0,0,0,0,0],"trees":[{"base_weights":[5.193142E-3,-4.2639023E-1,3.6293277E-1,-5.8005047E-1,-1.3111478E-1,1.2177035E-1,1.067945E0,-6.1279744E-1,4.714411E-1,2.723257E-1,-3.4244937E-1,7.4949336E-1,-1.3135931E-2,9.0728706E-1,3.006267E0,-3.7717592E-2,-1.8638222E-2,5.5293422E-2,-4.155162E-2,7.7895867E-3,1.289841E-1,2.6565848E-2,-2.0799128E-2,7.206723E-2,1.433447E-2,-1.7611437E-3,1.5690397E-1,4.2317715E-2,2.4010837E-1,1.7650582E-1,3.0561516E-3],"categories":[],"categories_nodes":[],"categories_segments":[],"categories_sizes":[],"default_left":[0,0,0,0,0,0,0,0,0,0,0,0,0,0,0,0,0,0,0,0,0,0,0,0,0,0,0,0,0,0,0],"id":0,"left_children":[1,3,5,7,9,11,13,15,17,19,21,23,25,27,29,-1,-1,-1,-1,-1,-1,-1,-1,-1,-1,-1,-1,-1,-1,-1,-1],"loss_changes":[2.7012793E2,3.5902344E1,1.6251855E2,1.8237473E1,2.3344328E1,6.046827E1,7.3161896E1,1.6909836E1,1.43952265E1,2.4954493E1,1.174781E1,4.0029884E1,4.107907E1,4.96848E1,2.7895325E1,0E0,0E0,0E0,0E0,0E0,0E0,0E0,0E0,0E0,0E0,0E0,0E0,0E0,0E0,0E0,0E0],"parents":[2147483647,0,0,1,1,2,2,3,3,4,4,5,5,6,6,7,7,8,8,9,9,10,10,11,11,12,12,13,13,14,14],"right_children":[2,4,6,8,10,12,14,16,18,20,22,24,26,28,30,-1,-1,-1,-1,-1,-1,-1,-1,-1,-1,-1,-1,-1,-1,-1,-1],"split_conditions":[7E0,6E0,1.71E1,4.4E1,8.6E0,6.23E1,6.698608E1,1.56E1,2.0088175E1,2E1,2.69E1,3.4E0,1.5E1,1.4E1,9.7E0,-3.7717592E-2,-1.8638222E-2,5.5293422E-2,-4.155162E-2,7.7895867E-3,1.289841E-1,2.6565848E-2,-2.0799128E-2,7.206723E-2,1.433447E-2,-1.7611437E-3,1.5690397E-1,4.2317715E-2,2.4010837E-1,1.7650582E-1,3.0561516E-3],"split_indices":[18,18,48,17,42,25,11,48,6,48,41,29,18,18,32,0,0,0,0,0,0,0,0,0,0,0,0,0,0,0,0],"split_type":[0,0,0,0,0,0,0,0,0,0,0,0,0,0,0,0,0,0,0,0,0,0,0,0,0,0,0,0,0,0,0],"sum_hessian":[1.7475935E3,7.9196326E2,9.5563025E2,5.2025836E2,2.717049E2,7.1293164E2,2.4269865E2,5.0494974E2,1.5308617E1,9.330186E1,1.7840305E2,1.25309074E2,5.8762256E2,2.2547797E2,1.7220684E1,3.1628473E2,1.88665E2,1.039582E1,4.9127965E0,8.983235E1,3.4694993E0,1.3365105E1,1.6503795E2,4.937837E1,7.59307E1,5.8451447E2,3.1080534E0,2.232034E2,2.2745712E0,1.4451576E1,2.7691076E0],"tree_param":{"num_deleted":"0","num_feature":"51","num_nodes":"31","size_leaf_vector":"1"}},{"base_weights":[-7.6978793E-3,-4.0297103E-1,3.219217E-1,-6.328991E-1,-1.9057491E-1,5.531505E-2,9.176338E-1,-7.617123E-1,-3.5971072E-1,1.7867841E-1,-3.2207376E-1,4.3621922E-1,-1.6902377E-1,1.7740679E0,6.6122484E-1,-3.8807277E-2,6.8778954E-2,-3.3057746E-2,-6.65266E-5,-1.4093054E-3,5.9716847E-2,-1.768596E-2,4.9081214E-2,8.321401E-3,3.9104115E-2,2.952906E-2,-1.3019696E-2,4.750254E-2,1.2071359E-1,1.361406E-2,5.3324163E-2],"categories":[],"categories_nodes":[],"categories_segments":[],"categories_sizes":[],"default_left":[0,0,0,0,0,0,0,0,0,0,0,0,0,0,0,0,0,0,0,0,0,0,0,0,0,0,0,0,0,0,0],"id":1,"left_children":[1,3,5,7,9,11,13,15,17,19,21,23,25,27,29,-1,-1,-1,-1,-1,-1,-1,-1,-1,-1,-1,-1,-1,-1,-1,-1],"loss_changes":[2.2933733E2,3.8966858E1,1.5239006E2,1.323555E1,2.032913E1,5.682545E1,6.3979324E1,9.087875E0,1.349309E1,2.3203049E1,1.3062727E1,2.2866146E1,2.9213089E1,3.3455475E1,3.595089E1,0E0,0E0,0E0,0E0,0E0,0E0,0E0,0E0,0E0,0E0,0E0,0E0,0E0,0E0,0E0,0E0],"parents":[2147483647,0,0,1,1,2,2,3,3,4,4,5,5,6,6,7,7,8,8,9,9,10,10,11,11,12,12,13,13,14,14],"right_children":[2,4,6,8,10,12,14,16,18,20,22,24,26,28,30,-1,-1,-1,-1,-1,-1,-1,-1,-1,-1,-1,-1,-1,-1,-1,-1],"split_conditions":[7E0,1.49E1,1.67E1,6E0,7.04E1,3.4E0,4.246968E-2,7.2263885E1,8.7E1,2.1E1,9.8E1,4.48E1,5.7E1,5.933E3,9E0,-3.8807277E-2,6.8778954E-2,-3.3057746E-2,-6.65266E-5,-1.4093054E-3,5.9716847E-2,-1.768596E-2,4.9081214E-2,8.321401E-3,3.9104115E-2,2.952906E-2,-1.3019696E-2,4.750254E-2,1.2071359E-1,1.361406E-2,5.3324163E-2],"split_indices":[18,48,48,18,25,29,13,50,30,17,38,26,25,36,18,0,0,0,0,0,0,0,0,0,0,0,0,0,0,0,0],"split_type":[0,0,0,0,0,0,0,0,0,0,0,0,0,0,0,0,0,0,0,0,0,0,0,0,0,0,0,0,0,0,0],"sum_hessian":[1.7582141E3,7.9938513E2,9.5882904E2,3.828997E2,4.164854E2,6.6313885E2,2.956902E2,2.5899207E2,1.2390761E2,1.0927596E2,3.0720947E2,2.454484E2,4.176905E2,6.676588E1,2.289243E2,2.5788742E2,1.1046685E0,6.6840904E1,5.70667E1,9.159299E1,1.768298E1,3.0064053E2,6.5689397E0,1.3872044E2,1.0672794E2,4.4261265E1,3.7342923E2,3.0278238E1,3.6487637E1,1.1766657E2,1.1125773E2],"tree_param":{"num_deleted":"0","num_feature":"51","num_nodes":"31","size_leaf_vector":"1"}},{"base_weights":[-2.3015833E-2,-2.7004266E-1,3.225285E-1,-3.4134746E-1,8.100183E-1,-1.8453024E-1,6.515619E-1,-6.622206E-1,-1.7373042E-1,2.689575E0,5.4784083E-1,2.54833E-1,-3.5345903E-1,1.3751644E0,3.464192E-1,2.4372444E-2,-3.4683418E-2,1.1242419E-2,-1.7995873E-2,2.0282482E-1,3.2580815E-2,8.8240676E-2,1.7269654E-2,-4.113363E-2,2.1111477E-2,-1.966839E-2,6.326192E-2,1.0161208E-1,3.9756056E-2,-4.2928853E-3,2.8130686E-2],"categories":[],"categories_nodes":[],"categories_segments":[],"categories_sizes":[],"default_left":[0,0,0,0,0,0,0,0,0,0,0,0,0,0,0,0,0,0,0,0,0,0,0,0,0,0,0,0,0,0,0],"id":2,"left_children":[1,3,5,7,9,11,13,15,17,19,21,23,25,27,29,-1,-1,-1,-1,-1,-1,-1,-1,-1,-1,-1,-1,-1,-1,-1,-1],"loss_changes":[1.5077083E2,7.959572E1,1.2297421E2,5.1886223E1,3.0104317E1,2.165612E1,9.8177155E1,1.2319885E1,4.7312187E1,1.8496555E1,1.3555094E1,1.5006775E1,1.4082531E1,4.876628E1,2.9543545E1,0E0,0E0,0E0,0E0,0E0,0E0,0E0,0E0,0E0,0E0,0E0,0E0,0E0,0E0,0E0,0E0],"parents":[2147483647,0,0,1,1,2,2,3,3,4,4,5,5,6,6,7,7,8,8,9,9,10,10,11,11,12,12,13,13,14,14],"right_children":[2,4,6,8,10,12,14,16,18,20,22,24,26,28,30,-1,-1,-1,-1,-1,-1,-1,-1,-1,-1,-1,-1,-1,-1,-1,-1],"split_conditions":[1.58E1,1.1E1,7E0,6E0,1.1E0,7.16E1,2E-1,4.7899315E1,6.92635E1,1.2050585E0,1.11E2,3.7424083E0,1E1,2E-1,2.0883157E0,2.4372444E-2,-3.4683418E-2,1.1242419E-2,-1.7995873E-2,2.0282482E-1,3.2580815E-2,8.8240676E-2,1.7269654E-2,-4.113363E-2,2.1111477E-2,-1.966839E-2,6.326192E-2,1.0161208E-1,3.9756056E-2,-4.2928853E-3,2.8130686E-2],"split_indices":[48,18,18,18,34,25,21,25,25,12,35,14,16,22,11,0,0,0,0,0,0,0,0,0,0,0,0,0,0,0,0],"split_type":[0,0,0,0,0,0,0,0,0,0,0,0,0,0,0,0,0,0,0,0,0,0,0,0,0,0,0,0,0,0,0],"sum_hessian":[1.7642998E3,1.0289386E3,7.3536127E2,9.658573E2,6.308121E1,2.8956488E2,4.457964E2,3.304049E2,6.354524E2,6.58862E0,5.649259E1,8.027384E1,2.0929102E2,1.3119041E2,3.1460596E2,8.411097E0,3.2199384E2,2.0225932E2,4.3319308E2,3.35072E0,3.2379005E0,6.9566674E0,4.9535923E1,1.0267704E1,7.000614E1,2.0499391E2,4.297107E0,6.0336826E1,7.0853584E1,1.0508779E2,2.0951817E2],"tree_param":{"num_deleted":"0","num_feature":"51","num_nodes":"31","size_leaf_vector":"1"}},{"base_weights":[7.915864E-3,-3.7115842E-1,3.0869305E-1,-6.379065E-1,-2.0535572E-1,5.1444644E-1,-1.7250769E-1,-4.539152E-1,-8.5332423E-1,-3.78289E-1,1.02435835E-1,1.175325E0,2.3162934E-1,-3.9697456E-1,1.4253254E-1,9.621915E-3,-2.7713627E-2,-4.479451E-2,-1.8091353E-2,-5.084921E-3,-2.412023E-2,1.7136272E-2,-2.502355E-2,3.235359E-2,9.989496E-2,1.7410169E-3,3.817729E-2,-2.5065763E-2,2.8708556E-3,-2.1529929E-3,4.1666444E-2],"categories":[],"categories_nodes":[],"categories_segments":[],"categories_sizes":[],"default_left":[0,0,0,0,0,0,0,0,0,0,0,0,0,0,0,0,0,0,0,0,0,0,0,0,0,0,0,0,0,0,0],"id":3,"left_children":[1,3,5,7,9,11,13,15,17,19,21,23,25,27,29,-1,-1,-1,-1,-1,-1,-1,-1,-1,-1,-1,-1,-1,-1,-1,-1],"loss_changes":[2.0075465E2,3.432189E1,9.729038E1,1.142878E1,2.5687326E1,1.2831113E2,2.090353E1,1.06751175E1,2.5252228E0,8.841747E0,2.5398325E1,8.818826E1,5.05392E1,8.202946E0,1.5855178E1,0E0,0E0,0E0,0E0,0E0,0E0,0E0,0E0,0E0,0E0,0E0,0E0,0E0,0E0,0E0,0E0],"parents":[2147483647,0,0,1,1,2,2,3,3,4,4,5,5,6,6,7,7,8,8,9,9,10,10,11,11,12,12,13,13,14,14],"right_children":[2,4,6,8,10,12,14,16,18,20,22,24,26,28,30,-1,-1,-1,-1,-1,-1,-1,-1,-1,-1,-1,-1,-1,-1,-1,-1],"split_conditions":[7E0,1.45E1,6E-1,8.57E1,3E1,1E0,6.113E3,4.8E0,2.97E2,9.7E1,1.0378185E2,2.9236312E0,1.71E1,7.34888E-1,5.12E1,9.621915E-3,-2.7713627E-2,-4.479451E-2,-1.8091353E-2,-5.084921E-3,-2.412023E-2,1.7136272E-2,-2.502355E-2,3.235359E-2,9.989496E-2,1.7410169E-3,3.817729E-2,-2.5065763E-2,2.8708556E-3,-2.1529929E-3,4.1666444E-2],"split_indices":[18,48,23,25,38,21,36,42,35,33,25,3,48,10,26,0,0,0,0,0,0,0,0,0,0,0,0,0,0,0,0],"split_type":[0,0,0,0,0,0,0,0,0,0,0,0,0,0,0,0,0,0,0,0,0,0,0,0,0,0,0,0,0,0,0],"sum_hessian":[1.7587399E3,7.779912E2,9.807487E2,2.9712335E2,4.8086783E2,6.869509E2,2.937978E2,1.619267E2,1.3519667E2,3.0773645E2,1.7313136E2,2.0492722E2,4.820237E2,1.7140866E2,1.2238913E2,2.1639503E1,1.402872E2,1.2366401E2,1.1532656E1,8.470042E1,2.2303603E2,1.2410188E2,4.902948E1,1.2587655E2,7.9050674E1,3.5261984E2,1.2940385E2,1.393149E2,3.2093758E1,9.7209946E1,2.5179188E1],"tree_param":{"num_deleted":"0","num_feature":"51","num_nodes":"31","size_leaf_vector":"1"}},{"base_weights":[-2.3913328E-3,-2.7620184E-1,3.9308193E-1,-5.278029E-1,-8.463984E-2,5.9147173E-1,-1.3644578E-1,-6.778193E-1,-2.5620177E-1,-1.4653848E-1,6.515953E-1,1.2632412E0,3.2900575E-1,-2.564179E-1,7.7989155E-1,-3.4981836E-2,1.7405188E-2,8.075285E-3,-2.367868E-2,7.858156E-3,-1.3484034E-2,-2.0228398E-3,6.415713E-2,3.523027E-2,1.06059454E-1,3.1996608E-2,5.254976E-3,-1.8857747E-2,1.5422158E-2,1.4476185E-1,2.4528744E-2],"categories":[],"categories_nodes":[],"categories_segments":[],"categories_sizes":[],"default_left":[0,0,0,0,0,0,0,0,0,0,0,0,0,0,0,0,0,0,0,0,0,0,0,0,0,0,0,0,0,0,0],"id":4,"left_children":[1,3,5,7,9,11,13,15,17,19,21,23,25,27,29,-1,-1,-1,-1,-1,-1,-1,-1,-1,-1,-1,-1,-1,-1,-1,-1],"loss_changes":[1.903508E2,5.0017982E1,7.563113E1,1.8112541E1,2.7024155E1,9.1859375E1,2.1837042E1,6.701126E0,1.472182E1,2.0457981E1,2.016153E1,6.880551E1,2.6225506E1,1.2036562E1,1.267577E1,0E0,0E0,0E0,0E0,0E0,0E0,0E0,0E0,0E0,0E0,0E0,0E0,0E0,0E0,0E0,0E0],"parents":[2147483647,0,0,1,1,2,2,3,3,4,4,5,5,6,6,7,7,8,8,9,9,10,10,11,11,12,12,13,13,14,14],"right_children":[2,4,6,8,10,12,14,16,18,20,22,24,26,28,30,-1,-1,-1,-1,-1,-1,-1,-1,-1,-1,-1,-1,-1,-1,-1,-1],"split_conditions":[8E0,1.48E1,6E-1,4.515E3,3.2E1,1E0,2.2435E4,4E1,6.6E1,7.003461E1,1E0,2.8798018E0,3.4E0,7.747633E-1,1.1E0,-3.4981836E-2,1.7405188E-2,8.075285E-3,-2.367868E-2,7.858156E-3,-1.3484034E-2,-2.0228398E-3,6.415713E-2,3.523027E-2,1.06059454E-1,3.1996608E-2,5.254976E-3,-1.8857747E-2,1.5422158E-2,1.4476185E-1,2.4528744E-2],"split_indices":[18,48,23,36,17,21,36,31,25,25,19,3,29,10,34,0,0,0,0,0,0,0,0,0,0,0,0,0,0,0,0],"split_type":[0,0,0,0,0,0,0,0,0,0,0,0,0,0,0,0,0,0,0,0,0,0,0,0,0,0,0,0,0,0,0],"sum_hessian":[1.7558701E3,1.0377047E3,7.1816534E2,4.4780032E2,5.899044E2,5.223483E2,1.9581699E2,2.8750427E2,1.6029607E2,5.448937E2,4.5010735E1,1.4567838E2,3.7666995E2,1.7378432E2,2.2032665E1,2.8182892E2,5.6753473E0,5.495332E1,1.0534274E2,1.5711926E2,3.877744E2,2.1923174E1,2.3087563E1,8.9332535E1,5.6345837E1,1.56914E2,2.1975597E2,1.4345387E2,3.033045E1,1.5671633E0,2.0465504E1],"tree_param":{"num_deleted":"0","num_feature":"51","num_nodes":"31","size_leaf_vector":"1"}},{"base_weights":[1.2516966E-2,-3.5887074E-1,2.904968E-1,-6.039832E-1,-2.1482316E-1,4.6400437E-1,-1.557713E-1,1.1288466E-2,-6.887479E-1,1.3488057E-1,-3.4010053E-1,1.0834057E0,3.1143254E-1,1.0333764E-1,-3.9442846E-1,2.65174E-2,-3.639836E-2,2.1275417E-3,-3.578047E-2,3.2336425E-2,-5.9367893E-3,-4.925173E-3,-2.4708642E-2,2.6174208E-2,7.976717E-2,2.6708096E-2,-6.296701E-4,1.7172847E-2,-1.5421243E-2,-2.98823E-2,-6.790434E-3],"categories":[],"categories_nodes":[],"categories_segments":[],"categories_sizes":[],"default_left":[0,0,0,0,0,0,0,0,0,0,0,0,0,0,0,0,0,0,0,0,0,0,0,0,0,0,0,0,0,0,0],"id":5,"left_children":[1,3,5,7,9,11,13,15,17,19,21,23,25,27,29,-1,-1,-1,-1,-1,-1,-1,-1,-1,-1,-1,-1,-1,-1,-1,-1],"loss_changes":[1.8125685E2,2.6407547E1,7.7821144E1,1.448822E1,2.0853216E1,6.801259E1,1.7469893E1,1.3664101E1,4.8244705E0,1.643115E1,1.2978077E1,4.002324E1,4.1989235E1,1.3545366E1,7.6405373E0,0E0,0E0,0E0,0E0,0E0,0E0,0E0,0E0,0E0,0E0,0E0,0E0,0E0,0E0,0E0,0E0],"parents":[2147483647,0,0,1,1,2,2,3,3,4,4,5,5,6,6,7,7,8,8,9,9,10,10,11,11,12,12,13,13,14,14],"right_children":[2,4,6,8,10,12,14,16,18,20,22,24,26,28,30,-1,-1,-1,-1,-1,-1,-1,-1,-1,-1,-1,-1,-1,-1,-1,-1],"split_conditions":[7E0,1.45E1,6E-1,5.88E1,6.867383E1,3.9796293E-2,3.56E0,9.2E-1,2.8E0,8.9E0,1.0624833E-1,4.2648115E0,8.7135025E1,8.8722595E1,3.793E3,2.65174E-2,-3.639836E-2,2.1275417E-3,-3.578047E-2,3.2336425E-2,-5.9367893E-3,-4.925173E-3,-2.4708642E-2,2.6174208E-2,7.976717E-2,2.6708096E-2,-6.296701E-4,1.7172847E-2,-1.5421243E-2,-2.98823E-2,-6.790434E-3],"split_indices":[18,48,23,25,25,13,29,40,42,42,13,3,25,25,36,0,0,0,0,0,0,0,0,0,0,0,0,0,0,0,0],"split_type":[0,0,0,0,0,0,0,0,0,0,0,0,0,0,0,0,0,0,0,0,0,0,0,0,0,0,0,0,0,0,0],"sum_hessian":[1.7537036E3,7.5059705E2,1.0031066E3,2.766516E2,4.739454E2,7.222561E2,2.8085056E2,3.360363E1,2.4304799E2,1.24983986E2,3.489614E2,1.4154002E2,5.8071606E2,1.3492747E2,1.459231E2,1.9908033E1,1.3695598E1,8.59046E0,2.3445753E2,4.0896576E1,8.408741E1,1.3652272E2,2.1243869E2,6.856786E1,7.297216E1,3.437679E2,2.3694815E2,8.5332E1,4.9595467E1,8.097997E1,6.494312E1],"tree_param":{"num_deleted":"0","num_feature":"51","num_nodes":"31","size_leaf_vector":"1"}},{"base_weights":[3.2866962E-4,-4.8342815E-1,1.725809E-1,-5.080674E-1,8.999978E-1,-1.8136378E-2,5.6811726E-1,3.9990625E-1,-5.581782E-1,-4.4799E-1,1.5869285E0,2.42738E-1,-2.2510542E-1,2.5365925E-1,9.382296E-1,7.126655E-2,-7.906461E-3,-3.56822E-2,-1.687584E-2,-2.9722108E-2,-3.6481812E-3,1.1038788E-1,-2.644301E-2,4.1161697E-2,-1.0943253E-3,-1.591537E-2,2.2877267E-2,-1.5252675E-3,3.6522016E-2,8.8853694E-2,2.9932735E-2],"categories":[],"categories_nodes":[],"categories_segments":[],"categories_sizes":[],"default_left":[0,0,0,0,0,0,0,0,0,0,0,0,0,0,0,0,0,0,0,0,0,0,0,0,0,0,0,0,0,0,0],"id":6,"left_children":[1,3,5,7,9,11,13,15,17,19,21,23,25,27,29,-1,-1,-1,-1,-1,-1,-1,-1,-1,-1,-1,-1,-1,-1,-1,-1],"loss_changes":[1.4616524E2,1.615696E1,9.758683E1,2.0841759E1,8.508016E0,4.7227104E1,4.8740097E1,1.4121458E1,1.450621E1,1.5557861E-1,8.783614E0,5.9464508E1,3.1174707E1,3.1033447E1,5.3894455E1,0E0,0E0,0E0,0E0,0E0,0E0,0E0,0E0,0E0,0E0,0E0,0E0,0E0,0E0,0E0,0E0],"parents":[2147483647,0,0,1,1,2,2,3,3,4,4,5,5,6,6,7,7,8,8,9,9,10,10,11,11,12,12,13,13,14,14],"right_children":[2,4,6,8,10,12,14,16,18,20,22,24,26,28,30,-1,-1,-1,-1,-1,-1,-1,-1,-1,-1,-1,-1,-1,-1,-1,-1],"split_conditions":[6E0,4E1,1.67E1,5.3E1,1.826155E0,3.5E0,6.666E3,3.17E1,1.55E1,2.98E1,1.11E2,6.91E1,6.22E1,9E0,2E-1,7.126655E-2,-7.906461E-3,-3.56822E-2,-1.687584E-2,-2.9722108E-2,-3.6481812E-3,1.1038788E-1,-2.644301E-2,4.1161697E-2,-1.0943253E-3,-1.591537E-2,2.2877267E-2,-1.5252675E-3,3.6522016E-2,8.8853694E-2,2.9932735E-2],"split_indices":[18,31,48,25,3,29,36,44,48,44,26,25,26,18,21,0,0,0,0,0,0,0,0,0,0,0,0,0,0,0,0],"split_type":[0,0,0,0,0,0,0,0,0,0,0,0,0,0,0,0,0,0,0,0,0,0,0,0,0,0,0,0,0,0,0],"sum_hessian":[1.7520897E3,4.5958237E2,1.2925074E3,4.5216196E2,7.420416E0,8.726787E2,4.1982867E2,2.328435E1,4.288776E2,2.622342E0,4.798074E0,3.859875E2,4.8669122E2,2.278912E2,1.9193748E2,7.658038E0,1.5626311E1,2.502976E2,1.7858E2,1.4651259E0,1.1572161E0,3.6759763E0,1.1220974E0,1.2019959E2,2.657879E2,4.2869534E2,5.799586E1,1.4337486E2,8.451633E1,5.4089123E1,1.3784837E2],"tree_param":{"num_deleted":"0","num_feature":"51","num_nodes":"31","size_leaf_vector":"1"}},{"base_weights":[-3.729465E-3,-4.8324656E-1,1.6323534E-1,5.3554964E-1,-5.2896E-1,3.2469845E-1,-2.4301426E-1,1.2715073E0,-7.901756E-2,-5.6959975E-1,6.3642913E-1,1.5352404E-1,7.158208E-1,-3.8013053E-1,4.7119033E-2,-2.6790991E-2,1.184265E-1,5.0364655E-2,-2.356579E-2,-3.7218448E-2,-1.5396602E-2,6.91381E-2,-1.6508695E-2,-2.5294896E-5,3.443238E-2,7.147666E-2,2.5123695E-2,5.743918E-2,-2.0491607E-2,1.0370496E-2,-2.2906203E-2],"categories":[],"categories_nodes":[],"categories_segments":[],"categories_sizes":[],"default_left":[0,0,0,0,0,0,0,0,0,0,0,0,0,0,0,0,0,0,0,0,0,0,0,0,0,0,0,0,0,0,0],"id":7,"left_children":[1,3,5,7,9,11,13,15,17,19,21,23,25,27,29,-1,-1,-1,-1,-1,-1,-1,-1,-1,-1,-1,-1,-1,-1,-1,-1],"loss_changes":[1.4213188E2,2.163636E1,8.645269E1,9.230462E0,2.1168396E1,6.300453E1,1.4939312E1,1.9597515E1,5.5637736E0,1.9207916E1,1.1476458E1,5.4153763E1,4.2937973E1,1.2042328E1,9.915616E0,0E0,0E0,0E0,0E0,0E0,0E0,0E0,0E0,0E0,0E0,0E0,0E0,0E0,0E0,0E0,0E0],"parents":[2147483647,0,0,1,1,2,2,3,3,4,4,5,5,6,6,7,7,8,8,9,9,10,10,11,11,12,12,13,13,14,14],"right_children":[2,4,6,8,10,12,14,16,18,20,22,24,26,28,30,-1,-1,-1,-1,-1,-1,-1,-1,-1,-1,-1,-1,-1,-1,-1,-1],"split_conditions":[6E0,5.1482693E1,6E-1,3.18E1,4.4E1,4.346397E0,3.7E1,2.82E0,9.03132E-4,1.55E1,7.82E1,1E1,6.536261E1,2.5E1,3.3E1,-2.6790991E-2,1.184265E-1,5.0364655E-2,-2.356579E-2,-3.7218448E-2,-1.5396602E-2,6.91381E-2,-1.6508695E-2,-2.5294896E-5,3.443238E-2,7.147666E-2,2.5123695E-2,5.743918E-2,-2.0491607E-2,1.0370496E-2,-2.2906203E-2],"split_indices":[18,25,23,44,17,3,38,29,13,48,25,18,25,27,44,0,0,0,0,0,0,0,0,0,0,0,0,0,0,0,0],"split_type":[0,0,0,0,0,0,0,0,0,0,0,0,0,0,0,0,0,0,0,0,0,0,0,0,0,0,0,0,0,0,0],"sum_hessian":[1.7732767E3,4.5748926E2,1.3157875E3,1.91859E1,4.3830334E2,9.417081E2,3.7407928E2,8.244265E0,1.0941635E1,4.240278E2,1.4275563E1,6.560019E2,2.8570624E2,2.5381621E2,1.2026309E2,3.3072288E0,4.9370356E0,2.48706E0,8.454575E0,2.5312173E2,1.7090605E2,7.812694E0,6.462869E0,5.1015732E2,1.4584459E2,6.4438545E1,2.212677E2,4.1188283E0,2.4969737E2,9.174577E1,2.8517319E1],"tree_param":{"num_deleted":"0","num_feature":"51","num_nodes":"31","size_leaf_vector":"1"}},{"base_weights":[-6.7090285E-3,-2.4023727E-1,3.079628E-1,-5.4840165E-1,-6.514825E-2,6.1287725E-1,8.406482E-2,-3.2997492E-1,-7.880928E-1,-3.0591673E-1,1.0270084E-1,8.846878E-1,1.6918698E-1,-1.9827722E-1,3.4150746E-1,2.1754142E-2,-2.0490065E-2,-4.0795293E-2,-1.5731398E-3,-1.9726528E-4,-2.2655493E-2,2.010817E-2,-3.5365354E-3,7.332807E-2,2.3915093E-2,4.5936513E-3,1.14822626E-1,-2.2019735E-2,4.7709257E-3,1.2500738E-2,6.7613624E-2],"categories":[],"categories_nodes":[],"categories_segments":[],"categories_sizes":[],"default_left":[0,0,0,0,0,0,0,0,0,0,0,0,0,0,0,0,0,0,0,0,0,0,0,0,0,0,0,0,0,0,0],"id":8,"left_children":[1,3,5,7,9,11,13,15,17,19,21,23,25,27,29,-1,-1,-1,-1,-1,-1,-1,-1,-1,-1,-1,-1,-1,-1,-1,-1],"loss_changes":[1.2988553E2,5.4705776E1,5.135254E1,1.8977867E1,2.6223055E1,3.827829E1,3.1709385E1,1.2024643E1,3.6460648E0,1.18425045E1,1.9900734E1,4.596643E1,1.99008E1,1.4850434E1,2.0752813E1,0E0,0E0,0E0,0E0,0E0,0E0,0E0,0E0,0E0,0E0,0E0,0E0,0E0,0E0,0E0,0E0],"parents":[2147483647,0,0,1,1,2,2,3,3,4,4,5,5,6,6,7,7,8,8,9,9,10,10,11,11,12,12,13,13,14,14],"right_children":[2,4,6,8,10,12,14,16,18,20,22,24,26,28,30,-1,-1,-1,-1,-1,-1,-1,-1,-1,-1,-1,-1,-1,-1,-1,-1],"split_conditions":[8E0,1.46E1,3.4E0,8.3E1,6E0,8.681751E1,3.5581586E0,3.13E1,8.2E1,9.7E1,9.334793E-2,3.16E1,6.268107E-1,3.9628483E-2,6.94E1,2.1754142E-2,-2.0490065E-2,-4.0795293E-2,-1.5731398E-3,-1.9726528E-4,-2.2655493E-2,2.010817E-2,-3.5365354E-3,7.332807E-2,2.3915093E-2,4.5936513E-3,1.14822626E-1,-2.2019735E-2,4.7709257E-3,1.2500738E-2,6.7613624E-2],"split_indices":[18,48,29,25,18,25,11,44,38,33,13,44,7,15,26,0,0,0,0,0,0,0,0,0,0,0,0,0,0,0,0],"split_type":[0,0,0,0,0,0,0,0,0,0,0,0,0,0,0,0,0,0,0,0,0,0,0,0,0,0,0,0,0,0,0],"sum_hessian":[1.76551E3,1.01355457E3,7.5195544E2,3.6645157E2,6.4710297E2,3.1764062E2,4.343148E2,1.9297404E2,1.7347751E2,2.6547458E2,3.816284E2,1.9635625E2,1.2128437E2,2.072499E2,2.2706491E2,1.7812105E1,1.7516194E2,1.6725117E2,6.226334E0,8.733364E1,1.7814095E2,1.3947661E2,2.4215178E2,7.967163E1,1.1668462E2,1.1803757E2,3.246803E0,1.1332626E2,9.392362E1,2.0936124E2,1.7703669E1],"tree_param":{"num_deleted":"0","num_feature":"51","num_nodes":"31","size_leaf_vector":"1"}},{"base_weights":[-2.023982E-2,-2.3958625E-1,2.698696E-1,-3.8778746E-1,1.3265835E-1,6.6141415E-1,1.1181141E-1,-2.0919992E-2,-5.136729E-1,4.004689E-2,1.0209688E0,2.5575003E-1,6.1169374E-1,9.4999276E-2,2.633563E0,-1.629631E-2,1.3279671E-2,-2.7090779E-2,7.830993E-3,8.882879E-3,-1.40270535E-2,3.3015784E-2,1.18925646E-1,3.9400797E-2,-8.53222E-3,1.5037127E-2,-5.55236E-3,1.9013618E-1,-1.9076836E-3],"categories":[],"categories_nodes":[],"categories_segments":[],"categories_sizes":[],"default_left":[0,0,0,0,0,0,0,0,0,0,0,0,0,0,0,0,0,0,0,0,0,0,0,0,0,0,0,0,0],"id":9,"left_children":[1,3,5,7,9,11,13,15,17,19,21,-1,23,25,27,-1,-1,-1,-1,-1,-1,-1,-1,-1,-1,-1,-1,-1,-1],"loss_changes":[1.1298855E2,5.582862E1,4.72393E1,3.3398506E1,2.3705885E1,4.5511337E1,2.2891804E1,1.6328016E1,1.0244049E1,1.1627764E1,1.1752306E1,0E0,3.025727E1,2.3064281E1,1.13202915E1,0E0,0E0,0E0,0E0,0E0,0E0,0E0,0E0,0E0,0E0,0E0,0E0,0E0,0E0],"parents":[2147483647,0,0,1,1,2,2,3,3,4,4,5,5,6,6,7,7,8,8,9,9,10,10,12,12,13,13,14,14],"right_children":[2,4,6,8,10,12,14,16,18,20,22,-1,24,26,28,-1,-1,-1,-1,-1,-1,-1,-1,-1,-1,-1,-1,-1,-1],"split_conditions":[8E0,1.66E1,8E-1,6.586156E1,3E1,2.1E0,1.5E1,2.3E1,2.7157E4,2E-1,6.4279085E-1,2.5575003E-1,6E-1,7.983219E1,2E-1,-1.629631E-2,1.3279671E-2,-2.7090779E-2,7.830993E-3,8.882879E-3,-1.40270535E-2,3.3015784E-2,1.18925646E-1,3.9400797E-2,-8.53222E-3,1.5037127E-2,-5.55236E-3,1.9013618E-1,-1.9076836E-3],"split_indices":[18,48,21,25,17,29,18,38,36,23,10,0,23,25,16,0,0,0,0,0,0,0,0,0,0,0,0,0,0],"split_type":[0,0,0,0,0,0,0,0,0,0,0,0,0,0,0,0,0,0,0,0,0,0,0,0,0,0,0,0,0],"sum_hessian":[1.7735713E3,1.0100586E3,7.635127E2,7.2240625E2,2.8765234E2,2.186599E2,5.448528E2,1.8485373E2,5.3755255E2,2.6144073E2,2.6211615E1,1.2894008E0,2.173705E2,5.422752E2,2.5775938E0,8.9470665E1,9.538306E1,5.1607635E2,2.1476154E1,1.8323424E2,7.82065E1,2.1884148E1,4.3274665E0,1.7738457E2,3.9985924E1,2.711073E2,2.7116794E2,1.4985105E0,1.0790834E0],"tree_param":{"num_deleted":"0","num_feature":"51","num_nodes":"29","size_leaf_vector":"1"}},{"base_weights":[6.931816E-3,-1.5192306E-1,4.2060548E-1,-3.5444838E-1,6.3541524E-2,7.7094024E-1,1.7429167E-1,-6.2757593E-1,-1.9705755E-1,2.5350726E-1,-1.8184787E-1,1.6580008E0,4.162837E-1,6.364104E-1,-2.0379927E-2,-3.2321643E-2,6.79375E-2,1.0768496E-2,-1.5208582E-2,2.4100028E-3,2.8181199E-2,-2.0218072E-2,6.5913023E-3,2.1329013E-1,7.009218E-2,9.940482E-3,5.6316383E-2,6.446278E-3,5.3362727E-2,4.043419E-2,-6.395222E-3],"categories":[],"categories_nodes":[],"categories_segments":[],"categories_sizes":[],"default_left":[0,0,0,0,0,0,0,0,0,0,0,0,0,0,0,0,0,0,0,0,0,0,0,0,0,0,0,0,0,0,0],"id":10,"left_children":[1,3,5,7,9,11,13,15,17,19,21,23,25,27,29,-1,-1,-1,-1,-1,-1,-1,-1,-1,-1,-1,-1,-1,-1,-1,-1],"loss_changes":[1.14184395E2,5.4809258E1,4.146817E1,2.770401E1,2.8442919E1,6.1833008E1,2.5595667E1,9.725456E0,1.8272537E1,2.1860935E1,1.8646568E1,3.1714142E1,2.1905424E1,1.8298508E1,1.8026426E1,0E0,0E0,0E0,0E0,0E0,0E0,0E0,0E0,0E0,0E0,0E0,0E0,0E0,0E0,0E0,0E0],"parents":[2147483647,0,0,1,1,2,2,3,3,4,4,5,5,6,6,7,7,8,8,9,9,10,10,11,11,12,12,13,13,14,14],"right_children":[2,4,6,8,10,12,14,16,18,20,22,24,26,28,30,-1,-1,-1,-1,-1,-1,-1,-1,-1,-1,-1,-1,-1,-1,-1,-1],"split_conditions":[9E0,1.55E1,3.38E0,6E0,3.58E0,1E0,3.09E1,6.285764E1,6.13E1,4.346397E0,4.243E3,2.4E0,2.359E4,2.9351554E0,2.082376E-3,-3.2321643E-2,6.79375E-2,1.0768496E-2,-1.5208582E-2,2.4100028E-3,2.8181199E-2,-2.0218072E-2,6.5913023E-3,2.1329013E-1,7.009218E-2,9.940482E-3,5.6316383E-2,6.446278E-3,5.3362727E-2,4.043419E-2,-6.395222E-3],"split_indices":[18,48,29,18,29,21,44,50,25,3,36,29,36,11,8,0,0,0,0,0,0,0,0,0,0,0,0,0,0,0,0],"split_type":[0,0,0,0,0,0,0,0,0,0,0,0,0,0,0,0,0,0,0,0,0,0,0,0,0,0,0,0,0,0,0],"sum_hessian":[1.7356216E3,1.2545098E3,4.8111176E2,6.4633966E2,6.0817017E2,1.9773756E2,2.8337418E2,2.3519963E2,4.1114005E2,3.4277853E2,2.6539163E2,5.542775E1,1.4230983E2,8.3319084E1,2.000551E2,2.3365599E2,1.5436282E0,8.455655E1,3.265835E2,2.0693582E2,1.3584271E2,1.5508705E2,1.1030457E2,3.557515E0,5.1870235E1,1.09922485E2,3.2387337E1,3.885344E1,4.446564E1,2.2218592E1,1.7783652E2],"tree_param":{"num_deleted":"0","num_feature":"51","num_nodes":"31","size_leaf_vector":"1"}},{"base_weights":[-2.6673404E-3,-4.364393E-1,1.3229148E-1,-5.201555E-1,2.2473085E-1,-7.211996E-2,3.5759336E-1,-6.812449E-1,-2.973632E-1,1.7694939E0,9.84099E-3,5.326406E-2,-3.7553543E-1,6.3563114E-1,1.4039905E-1,-3.535507E-2,8.158361E-2,-1.777803E-2,3.732508E-2,1.5613078E-1,-1.814388E-2,-1.8251928E-2,3.0314246E-2,-1.1394637E-2,1.3463132E-2,2.9035613E-2,-2.0830153E-2,2.3137806E-2,6.1680634E-2,5.810135E-3,1.4351806E-1],"categories":[],"categories_nodes":[],"categories_segments":[],"categories_sizes":[],"default_left":[0,0,0,0,0,0,0,0,0,0,0,0,0,0,0,0,0,0,0,0,0,0,0,0,0,0,0,0,0,0,0],"id":11,"left_children":[1,3,5,7,9,11,13,15,17,19,21,23,25,27,29,-1,-1,-1,-1,-1,-1,-1,-1,-1,-1,-1,-1,-1,-1,-1,-1],"loss_changes":[1.02406555E2,2.3093216E1,6.147194E1,1.3031822E1,1.5700957E1,2.6664465E1,3.8247765E1,1.3906204E1,9.773799E0,1.7801685E1,9.740661E0,3.0210632E1,8.289185E0,2.8182137E1,2.3294542E1,0E0,0E0,0E0,0E0,0E0,0E0,0E0,0E0,0E0,0E0,0E0,0E0,0E0,0E0,0E0,0E0],"parents":[2147483647,0,0,1,1,2,2,3,3,4,4,5,5,6,6,7,7,8,8,9,9,10,10,11,11,12,12,13,13,14,14],"right_children":[2,4,6,8,10,12,14,16,18,20,22,24,26,28,30,-1,-1,-1,-1,-1,-1,-1,-1,-1,-1,-1,-1,-1,-1,-1,-1],"split_conditions":[6E0,3E0,5.769E3,1.55E1,2E1,2E-1,3.16E1,6.285764E1,2.18E2,1.5146834E-1,1.63E1,1.0045073E0,1.06E2,1E1,1.13E2,-3.535507E-2,8.158361E-2,-1.777803E-2,3.732508E-2,1.5613078E-1,-1.814388E-2,-1.8251928E-2,3.0314246E-2,-1.1394637E-2,1.3463132E-2,2.9035613E-2,-2.0830153E-2,2.3137806E-2,6.1680634E-2,5.810135E-3,1.4351806E-1],"split_indices":[18,16,36,48,31,23,44,50,30,13,48,3,47,18,33,0,0,0,0,0,0,0,0,0,0,0,0,0,0,0,0],"split_type":[0,0,0,0,0,0,0,0,0,0,0,0,0,0,0,0,0,0,0,0,0,0,0,0,0,0,0,0,0,0,0],"sum_hessian":[1.7473165E3,4.1410504E2,1.3332115E3,3.67754E2,4.6351063E1,6.9936914E2,6.3384235E2,2.1223802E2,1.5551596E2,4.776947E0,4.1574116E1,4.9545203E2,2.0391713E2,2.7713977E2,3.5670255E2,2.1057822E2,1.6598035E0,1.4792809E2,7.587882E0,2.6383588E0,2.138588E0,2.5766941E1,1.5807176E1,2.152346E2,2.802174E2,7.8558326E0,1.9606131E2,2.1636348E2,6.0776302E1,3.5460217E2,2.1003644E0],"tree_param":{"num_deleted":"0","num_feature":"51","num_nodes":"31","size_leaf_vector":"1"}},{"base_weights":[-7.636983E-3,-1.5969089E-1,3.6940804E-1,-4.2112163E-1,5.783377E-3,7.6622427E-1,2.0813298E-1,-2.1313582E-1,-6.701152E-1,1.2418709E-1,-2.8280586E-1,1.9253539E-1,1.1758771E0,3.6671263E-1,-1.0090158E-1,-1.3413638E-2,4.129736E-2,-3.6724895E-2,-8.40908E-3,-3.0651195E-3,2.0825615E-2,-1.9078849E-2,8.324494E-3,1.3286171E-3,1.4266714E-1,1.7464636E-1,5.208477E-2,1.5126477E-2,1.04671076E-1,-9.1408705E-3,5.3587776E-2],"categories":[],"categories_nodes":[],"categories_segments":[],"categories_sizes":[],"default_left":[0,0,0,0,0,0,0,0,0,0,0,0,0,0,0,0,0,0,0,0,0,0,0,0,0,0,0,0,0,0,0],"id":12,"left_children":[1,3,5,7,9,11,13,15,17,19,21,23,25,27,29,-1,-1,-1,-1,-1,-1,-1,-1,-1,-1,-1,-1,-1,-1,-1,-1],"loss_changes":[1.0108256E2,5.435459E1,3.226763E1,2.5078201E1,2.6359428E1,3.4097633E1,1.7760193E1,1.5508457E1,7.024376E0,2.9683575E1,1.0023155E1,2.7320663E1,2.2792046E1,2.587844E1,1.205237E1,0E0,0E0,0E0,0E0,0E0,0E0,0E0,0E0,0E0,0E0,0E0,0E0,0E0,0E0,0E0,0E0],"parents":[2147483647,0,0,1,1,2,2,3,3,4,4,5,5,6,6,7,7,8,8,9,9,10,10,11,11,12,12,13,13,14,14],"right_children":[2,4,6,8,10,12,14,16,18,20,22,24,26,28,30,-1,-1,-1,-1,-1,-1,-1,-1,-1,-1,-1,-1,-1,-1,-1,-1],"split_conditions":[9E0,1.48E1,1E0,8.35E1,6E-1,1.3004525E1,3.25E1,6.9E1,1E2,4.346397E0,1.4315E4,1.3E1,2.4E0,9.717835E-1,4.7E0,-1.3413638E-2,4.129736E-2,-3.6724895E-2,-8.40908E-3,-3.0651195E-3,2.0825615E-2,-1.9078849E-2,8.324494E-3,1.3286171E-3,1.4266714E-1,1.7464636E-1,5.208477E-2,1.5126477E-2,1.04671076E-1,-9.1408705E-3,5.3587776E-2],"split_indices":[18,48,21,25,23,14,44,26,45,3,36,18,29,10,34,0,0,0,0,0,0,0,0,0,0,0,0,0,0,0,0],"split_type":[0,0,0,0,0,0,0,0,0,0,0,0,0,0,0,0,0,0,0,0,0,0,0,0,0,0,0,0,0,0,0],"sum_hessian":[1.7611057E3,1.2554052E3,5.057006E2,4.860135E2,7.693916E2,1.4505144E2,3.6064914E2,2.6582462E2,2.2018889E2,5.459617E2,2.2342996E2,6.1039745E1,8.4011696E1,2.3822067E2,1.2242847E2,2.5313434E2,1.2690267E1,1.9474564E2,2.5443249E1,3.3450076E2,2.1146089E2,1.832876E2,4.0142376E1,5.840672E1,2.6330266E0,3.2286177E0,8.078308E1,2.3081625E2,7.4044113E0,1.1522363E2,7.204833E0],"tree_param":{"num_deleted":"0","num_feature":"51","num_nodes":"31","size_leaf_vector":"1"}},{"base_weights":[7.539457E-4,-4.0074724E-1,1.1971952E-1,-5.950311E-1,-1.5009879E-1,-6.9809146E-3,4.7695628E-1,-6.133238E-1,8.831077E-1,3.766823E-1,-3.0074665E-1,1.5850364E-1,-2.9641888E-1,3.3379993E-1,1.0089023E0,-3.315119E-2,-5.269132E-3,6.700639E-2,-1.2110432E-3,3.2809887E-2,-2.2126E-2,-3.477515E-2,-7.1360627E-3,2.023852E-2,-5.9719114E-3,-1.5632773E-2,6.3112E-2,3.8962737E-3,2.9723886E-2,4.312905E-2,1.4959519E-1],"categories":[],"categories_nodes":[],"categories_segments":[],"categories_sizes":[],"default_left":[0,0,0,0,0,0,0,0,0,0,0,0,0,0,0,0,0,0,0,0,0,0,0,0,0,0,0,0,0,0,0],"id":13,"left_children":[1,3,5,7,9,11,13,15,17,19,21,23,25,27,29,-1,-1,-1,-1,-1,-1,-1,-1,-1,-1,-1,-1,-1,-1,-1,-1],"loss_changes":[8.436789E1,1.9571411E1,6.1676395E1,6.682335E0,1.4209934E1,4.8271378E1,2.6830513E1,5.608116E0,1.3535998E0,9.43725E0,8.552204E0,4.393911E1,9.672184E0,1.8803164E1,1.9226044E1,0E0,0E0,0E0,0E0,0E0,0E0,0E0,0E0,0E0,0E0,0E0,0E0,0E0,0E0,0E0,0E0],"parents":[2147483647,0,0,1,1,2,2,3,3,4,4,5,5,6,6,7,7,8,8,9,9,10,10,11,11,12,12,13,13,14,14],"right_children":[2,4,6,8,10,12,14,16,18,20,22,24,26,28,30,-1,-1,-1,-1,-1,-1,-1,-1,-1,-1,-1,-1,-1,-1,-1,-1],"split_conditions":[6E0,1.56E1,1.73E1,6.285764E1,9.5E1,8.7135025E1,1.51E2,3E0,1.3154967E-1,3.1944443E-2,4E0,3.54E0,1.5E1,6.018E3,5.123811E-1,-3.315119E-2,-5.269132E-3,6.700639E-2,-1.2110432E-3,3.2809887E-2,-2.2126E-2,-3.477515E-2,-7.1360627E-3,2.023852E-2,-5.9719114E-3,-1.5632773E-2,6.3112E-2,3.8962737E-3,2.9723886E-2,4.312905E-2,1.4959519E-1],"split_indices":[18,48,48,50,33,25,30,16,10,6,18,29,18,36,9,0,0,0,0,0,0,0,0,0,0,0,0,0,0,0,0],"split_type":[0,0,0,0,0,0,0,0,0,0,0,0,0,0,0,0,0,0,0,0,0,0,0,0,0,0,0,0,0,0,0],"sum_hessian":[1.7643142E3,4.0273636E2,1.3615779E3,2.2610376E2,1.766326E2,1.0058246E3,3.5575333E2,2.2391772E2,2.186026E0,3.8946205E1,1.3768639E2,6.402294E2,3.6559525E2,2.8159775E2,7.415556E1,2.0368283E2,2.023489E1,1.1365459E0,1.0494802E0,2.9186592E1,9.759614E0,3.8388515E1,9.9297874E1,3.3921555E2,3.010138E2,3.6261725E2,2.9779868E0,1.4276364E2,1.388341E2,7.0396164E1,3.7593937E0],"tree_param":{"num_deleted":"0","num_feature":"51","num_nodes":"31","size_leaf_vector":"1"}},{"base_weights":[-9.90049E-3,-2.0044403E-1,1.8408427E-1,-4.9016178E-1,-6.028743E-2,3.386252E-1,-1.0320528E-1,-8.580233E-2,-6.28075E-1,2.2856854E-2,-5.951715E-1,5.6061786E-1,3.833603E-2,-1.9998266E-1,2.9220995E-1,4.8385214E-2,-1.2768872E-2,-3.2480605E-2,2.3820097E-2,-1.0275395E-3,4.5143645E-2,-3.3202965E-2,2.8012037E-2,2.0405779E-2,5.3130686E-2,-3.160142E-3,3.55875E-2,-2.438621E-2,-3.9777826E-4,-8.7539403E-4,4.1348424E-2],"categories":[],"categories_nodes":[],"categories_segments":[],"categories_sizes":[],"default_left":[0,0,0,0,0,0,0,0,0,0,0,0,0,0,0,0,0,0,0,0,0,0,0,0,0,0,0,0,0,0,0],"id":14,"left_children":[1,3,5,7,9,11,13,15,17,19,21,23,25,27,29,-1,-1,-1,-1,-1,-1,-1,-1,-1,-1,-1,-1,-1,-1,-1,-1],"loss_changes":[6.569073E1,3.6375214E1,3.913566E1,1.6239304E1,2.6936014E1,3.816774E1,1.1875664E1,1.37286215E1,5.4880524E0,2.0069159E1,6.857214E0,2.4776566E1,1.6768248E1,1.3736849E1,1.013837E1,0E0,0E0,0E0,0E0,0E0,0E0,0E0,0E0,0E0,0E0,0E0,0E0,0E0,0E0,0E0,0E0],"parents":[2147483647,0,0,1,1,2,2,3,3,4,4,5,5,6,6,7,7,8,8,9,9,10,10,11,11,12,12,13,13,14,14],"right_children":[2,4,6,8,10,12,14,16,18,20,22,24,26,28,30,-1,-1,-1,-1,-1,-1,-1,-1,-1,-1,-1,-1,-1,-1,-1,-1],"split_conditions":[3.1E1,6E0,9.01E1,9.7E1,2.63E2,3.6E0,5.7E0,5.88E1,3.469999E1,1.2E1,3.3E1,1E1,5.64E1,3.4772115E0,1.144E2,4.8385214E-2,-1.2768872E-2,-3.2480605E-2,2.3820097E-2,-1.0275395E-3,4.5143645E-2,-3.3202965E-2,2.8012037E-2,2.0405779E-2,5.3130686E-2,-3.160142E-3,3.55875E-2,-2.438621E-2,-3.9777826E-4,-8.7539403E-4,4.1348424E-2],"split_indices":[38,18,25,33,27,29,37,25,12,18,31,18,26,11,30,0,0,0,0,0,0,0,0,0,0,0,0,0,0,0,0],"split_type":[0,0,0,0,0,0,0,0,0,0,0,0,0,0,0,0,0,0,0,0,0,0,0,0,0,0,0,0,0,0,0],"sum_hessian":[1.7752261E3,8.955397E2,8.796864E2,2.9116827E2,6.043714E2,5.7187854E2,3.0780783E2,7.446378E1,2.1670451E2,5.238929E2,8.047851E1,3.2830664E2,2.4357191E2,2.4768219E2,6.012566E1,9.671533E0,6.479225E1,2.1296361E2,3.740905E0,5.001968E2,2.3696045E1,7.635155E1,4.1269546E0,2.531996E2,7.5107025E1,2.1244511E2,3.1126806E1,9.851831E1,1.4916388E2,3.8686646E1,2.1439013E1],"tree_param":{"num_deleted":"0","num_feature":"51","num_nodes":"31","size_leaf_vector":"1"}},{"base_weights":[5.3633954E-3,-3.7374002E-1,1.16846085E-1,-4.0658912E-1,1.0566001E0,2.3215172E-1,-1.9256999E-1,-5.915024E-1,-2.1520627E-1,-3.4817064E-1,2.0159707E0,5.062798E-1,5.7369858E-2,-2.5101483E-1,5.205514E-1,-6.3582035E-3,-3.366613E-2,3.9407037E-2,-1.3759851E-2,-3.5933632E-2,2.3227049E-2,1.2753768E-1,-3.0662136E-3,3.4042757E-2,4.458564E-3,1.9090412E-3,1.1266357E-1,-1.621646E-2,1.0069622E-2,5.196513E-2,-1.5598391E-2],"categories":[],"categories_nodes":[],"categories_segments":[],"categories_sizes":[],"default_left":[0,0,0,0,0,0,0,0,0,0,0,0,0,0,0,0,0,0,0,0,0,0,0,0,0,0,0,0,0,0,0],"id":15,"left_children":[1,3,5,7,9,11,13,15,17,19,21,23,25,27,29,-1,-1,-1,-1,-1,-1,-1,-1,-1,-1,-1,-1,-1,-1,-1,-1],"loss_changes":[7.422572E1,1.9181633E1,4.8463432E1,1.3705124E1,1.3151769E1,4.7363224E1,1.5509365E1,7.4452286E0,1.1872662E1,1.7194079E0,6.4179306E0,2.797313E1,2.5413254E1,1.1399162E1,1.253554E1,0E0,0E0,0E0,0E0,0E0,0E0,0E0,0E0,0E0,0E0,0E0,0E0,0E0,0E0,0E0,0E0],"parents":[2147483647,0,0,1,1,2,2,3,3,4,4,5,5,6,6,7,7,8,8,9,9,10,10,11,11,12,12,13,13,14,14],"right_children":[2,4,6,8,10,12,14,16,18,20,22,24,26,28,30,-1,-1,-1,-1,-1,-1,-1,-1,-1,-1,-1,-1,-1,-1,-1,-1],"split_conditions":[6E0,4E1,6E-1,2.2E1,1.9842265E-2,5.0366974E1,2.8008E4,6.13E1,5.23E1,4E0,1.62E0,9.239669E1,1.5E1,6.02E1,7.154E3,-6.3582035E-3,-3.366613E-2,3.9407037E-2,-1.3759851E-2,-3.5933632E-2,2.3227049E-2,1.2753768E-1,-3.0662136E-3,3.4042757E-2,4.458564E-3,1.9090412E-3,1.1266357E-1,-1.621646E-2,1.0069622E-2,5.196513E-2,-1.5598391E-2],"split_indices":[18,31,23,38,15,0,36,25,25,16,40,25,18,26,4,0,0,0,0,0,0,0,0,0,0,0,0,0,0,0,0],"split_type":[0,0,0,0,0,0,0,0,0,0,0,0,0,0,0,0,0,0,0,0,0,0,0,0,0,0,0,0,0,0,0],"sum_hessian":[1.7542288E3,3.9810318E2,1.3561256E3,3.898653E2,8.237889E0,9.881395E2,3.6798605E2,1.9722075E2,1.9264453E2,3.6014721E0,4.636417E0,3.8399097E2,6.0414856E2,3.4071063E2,2.7275406E1,2.9928345E1,1.672924E2,1.0183729E1,1.824608E2,2.5532136E0,1.0482584E0,3.5059245E0,1.1304927E0,2.702493E2,1.1374165E2,5.999235E2,4.2250853E0,2.9344055E2,4.727009E1,1.6651379E1,1.0624027E1],"tree_param":{"num_deleted":"0","num_feature":"51","num_nodes":"31","size_leaf_vector":"1"}},{"base_weights":[-2.255767E-2,-2.724926E-1,1.23149805E-1,-9.6854955E-2,-5.724872E-1,2.2740445E-1,-1.7598978E-1,5.381538E-1,-1.8783338E-1,-6.2130934E-1,2.1326582E-1,-2.1166733E-2,4.3797436E-1,1.1789771E-1,-3.314589E-1,1.0798607E-2,9.150385E-2,7.84327E-3,-1.8347101E-2,-3.4473997E-2,-1.1299132E-2,3.1859316E-2,-3.9679144E-2,3.2502979E-3,-2.8128868E-2,1.7999712E-2,5.7835102E-2,-3.6626894E-3,3.440741E-2,-2.4049109E-2,-7.1087846E-4],"categories":[],"categories_nodes":[],"categories_segments":[],"categories_sizes":[],"default_left":[0,0,0,0,0,0,0,0,0,0,0,0,0,0,0,0,0,0,0,0,0,0,0,0,0,0,0,0,0,0,0],"id":16,"left_children":[1,3,5,7,9,11,13,15,17,19,21,23,25,27,29,-1,-1,-1,-1,-1,-1,-1,-1,-1,-1,-1,-1,-1,-1,-1,-1],"loss_changes":[6.4550514E1,3.4338512E1,3.4964157E1,2.3956081E1,9.371681E0,4.3497902E1,1.32883625E1,2.1250584E1,2.2401447E1,5.96196E0,6.8369584E0,1.7858759E1,2.4796684E1,1.1066943E1,9.001738E0,0E0,0E0,0E0,0E0,0E0,0E0,0E0,0E0,0E0,0E0,0E0,0E0,0E0,0E0,0E0,0E0],"parents":[2147483647,0,0,1,1,2,2,3,3,4,4,5,5,6,6,7,7,8,8,9,9,10,10,11,11,12,12,13,13,14,14],"right_children":[2,4,6,8,10,12,14,16,18,20,22,24,26,28,30,-1,-1,-1,-1,-1,-1,-1,-1,-1,-1,-1,-1,-1,-1,-1,-1],"split_conditions":[1.49E1,8.7135025E1,6E-1,4.8E0,1.1E1,1.5664793E0,9.7E0,1.6E1,3.38E0,1.7E1,4.7654602E1,2.26E2,2.09E1,3.1789592E-1,3.7E1,1.0798607E-2,9.150385E-2,7.84327E-3,-1.8347101E-2,-3.4473997E-2,-1.1299132E-2,3.1859316E-2,-3.9679144E-2,3.2502979E-3,-2.8128868E-2,1.7999712E-2,5.7835102E-2,-3.6626894E-3,3.440741E-2,-2.4049109E-2,-7.1087846E-4],"split_indices":[48,25,23,42,18,3,42,17,29,17,14,27,48,8,38,0,0,0,0,0,0,0,0,0,0,0,0,0,0,0,0],"split_type":[0,0,0,0,0,0,0,0,0,0,0,0,0,0,0,0,0,0,0,0,0,0,0,0,0,0,0,0,0,0,0],"sum_hessian":[1.7705975E3,6.5175653E2,1.118841E3,4.119155E2,2.3984105E2,8.298616E2,2.8897943E2,5.1003998E1,3.609115E2,2.2600752E2,1.3833518E1,3.8100113E2,4.4886044E2,1.0006518E2,1.8891426E2,4.17576E1,9.246401E0,1.2345111E2,2.3746037E2,1.92132E2,3.387553E1,9.993171E0,3.8403466E0,3.2944543E2,5.1555687E1,4.0628088E2,4.257956E1,7.559635E1,2.4468824E1,1.280467E2,6.0867554E1],"tree_param":{"num_deleted":"0","num_feature":"51","num_nodes":"31","size_leaf_vector":"1"}},{"base_weights":[-1.3299256E-3,-3.244177E-1,1.267627E-1,-4.2244592E-1,1.298605E-1,-6.399544E-2,3.2665566E-1,1.1575061E-1,-4.356536E-1,1.1467797E0,-4.5315515E-2,-4.1551834E-1,2.5772827E-2,6.500884E-1,1.7651527E-1,-2.3540786E-2,1.8551938E-2,1.1043965E-1,1.156186E-2,-1.1808238E-2,2.1171898E-2,-2.3132475E-2,5.0331067E-2,-8.63159E-3,1.2153822E-2,1.7788975E-2,5.3616125E-2,5.597595E-3,4.925352E-2],"categories":[],"categories_nodes":[],"categories_segments":[],"categories_sizes":[],"default_left":[0,0,0,0,0,0,0,0,0,0,0,0,0,0,0,0,0,0,0,0,0,0,0,0,0,0,0,0,0],"id":17,"left_children":[1,3,5,7,9,11,13,-1,15,17,19,21,23,25,27,-1,-1,-1,-1,-1,-1,-1,-1,-1,-1,-1,-1,-1,-1],"loss_changes":[7.204947E1,2.2065464E1,4.755876E1,1.5715614E1,1.5815777E1,2.0167105E1,2.9455261E1,0E0,1.1681274E1,1.2169851E1,6.9392767E0,9.178947E0,2.2019875E1,2.3562546E1,2.1671518E1,0E0,0E0,0E0,0E0,0E0,0E0,0E0,0E0,0E0,0E0,0E0,0E0,0E0,0E0],"parents":[2147483647,0,0,1,1,2,2,3,3,4,4,5,5,6,6,8,8,9,9,10,10,11,11,12,12,13,13,14,14],"right_children":[2,4,6,8,10,12,14,-1,16,18,20,22,24,26,28,-1,-1,-1,-1,-1,-1,-1,-1,-1,-1,-1,-1,-1,-1],"split_conditions":[1.45E1,1.2532E4,8E0,7.3E1,5.7E1,5E0,1E0,1.1575061E-1,4.3E1,3.27E1,3.7E1,5.3771883E-1,1.970725E0,2.3173475E-1,6.94E1,-2.3540786E-2,1.8551938E-2,1.1043965E-1,1.156186E-2,-1.1808238E-2,2.1171898E-2,-2.3132475E-2,5.0331067E-2,-8.63159E-3,1.2153822E-2,1.7788975E-2,5.3616125E-2,5.597595E-3,4.925352E-2],"split_indices":[48,36,18,33,25,18,21,0,17,44,41,7,3,9,26,0,0,0,0,0,0,0,0,0,0,0,0,0,0],"split_type":[0,0,0,0,0,0,0,0,0,0,0,0,0,0,0,0,0,0,0,0,0,0,0,0,0,0,0,0,0],"sum_hessian":[1.7389556E3,4.9326404E2,1.2456915E3,4.0577283E2,8.749121E1,6.37758E2,6.079336E2,1.1115541E0,4.0466125E2,1.2041622E1,7.544959E1,1.2899574E2,5.0876227E2,1.9168196E2,4.1625162E2,3.8815857E2,1.6502695E1,4.9209056E0,7.120716E0,5.397165E1,2.1477943E1,1.25510864E2,3.4848764E0,2.6605328E2,2.4270897E2,1.1403734E2,7.764462E1,3.8652588E2,2.972574E1],"tree_param":{"num_deleted":"0","num_feature":"51","num_nodes":"29","size_leaf_vector":"1"}},{"base_weights":[8.859804E-4,-1.2910306E-1,2.9874593E-1,-2.9321975E-1,4.6182565E-2,2.6709032E-1,2.145228E0,-4.666976E-1,-1.2222426E-1,2.497754E-1,-1.4106403E-1,3.261753E-2,4.6788734E-1,2.7400186E0,-1.2736529E-2,-3.049448E-2,-4.488454E-3,-1.8997332E-2,3.0752316E-3,5.71361E-3,4.753409E-2,-9.124594E-3,5.057388E-2,9.836999E-3,-1.5243821E-2,1.6877068E-2,5.2410778E-2,3.7893612E-2,1.788706E-1],"categories":[],"categories_nodes":[],"categories_segments":[],"categories_sizes":[],"default_left":[0,0,0,0,0,0,0,0,0,0,0,0,0,0,0,0,0,0,0,0,0,0,0,0,0,0,0,0,0],"id":18,"left_children":[1,3,5,7,9,11,13,15,17,19,21,23,25,27,-1,-1,-1,-1,-1,-1,-1,-1,-1,-1,-1,-1,-1,-1,-1],"loss_changes":[6.837941E1,3.5383026E1,3.0790043E1,1.8783047E1,2.2732561E1,2.4874958E1,1.3404579E1,1.6942238E1,1.5232628E1,2.7016544E1,1.5023603E1,1.3628164E1,2.1182423E1,9.270477E0,0E0,0E0,0E0,0E0,0E0,0E0,0E0,0E0,0E0,0E0,0E0,0E0,0E0,0E0,0E0],"parents":[2147483647,0,0,1,1,2,2,3,3,4,4,5,5,6,6,7,7,8,8,9,9,10,10,11,11,12,12,13,13],"right_children":[2,4,6,8,10,12,14,16,18,20,22,24,26,28,-1,-1,-1,-1,-1,-1,-1,-1,-1,-1,-1,-1,-1,-1,-1],"split_conditions":[9E0,8.342881E0,1.5E1,1.1210526E1,7.774567E1,1.57E1,1.8769842E1,4E1,4.42E1,2.9E1,5.3771883E-1,8.7135025E1,1.2609152E1,8.02E2,-1.2736529E-2,-3.049448E-2,-4.488454E-3,-1.8997332E-2,3.0752316E-3,5.71361E-3,4.753409E-2,-9.124594E-3,5.057388E-2,9.836999E-3,-1.5243821E-2,1.6877068E-2,5.2410778E-2,3.7893612E-2,1.788706E-1],"split_indices":[18,11,18,2,25,48,6,38,26,31,7,25,3,36,0,0,0,0,0,0,0,0,0,0,0,0,0,0,0],"split_type":[0,0,0,0,0,0,0,0,0,0,0,0,0,0,0,0,0,0,0,0,0,0,0,0,0,0,0,0,0],"sum_hessian":[1.764068E3,1.2285034E3,5.355646E2,6.3411786E2,5.9438556E2,5.276631E2,7.901473E0,3.1391568E2,3.2020218E2,2.8460318E2,3.0978235E2,2.439558E2,2.8370728E2,6.2186E0,1.682873E0,2.270451E2,8.687057E1,1.328214E2,1.873808E2,2.3947043E2,4.5132744E1,2.9984613E2,9.936234E0,1.6441719E2,7.95386E1,2.329636E2,5.0743694E1,2.4126916E0,3.8059084E0],"tree_param":{"num_deleted":"0","num_feature":"51","num_nodes":"29","size_leaf_vector":"1"}},{"base_weights":[-7.1933386E-3,1.0902734E-1,-3.0688944E-1,3.8241377E-1,-3.2739144E-2,-6.234963E-1,-1.8282111E-1,2.0232709E-1,7.654697E-1,-3.0035454E-1,7.5796925E-2,-6.495492E-1,6.630638E-2,4.9972954E-1,-2.3906653E-1,4.6185415E-2,4.628487E-3,5.660516E-2,1.5938334E-2,-1.8271504E-2,2.122933E-2,1.5643486E-1,3.0988883E-3,-3.4287643E-2,3.3371372E-3,8.8695854E-2,3.5144722E-3,-3.5393783E-3,-2.3090957E-2],"categories":[],"categories_nodes":[],"categories_segments":[],"categories_sizes":[],"default_left":[0,0,0,0,0,0,0,0,0,0,0,0,0,0,0,0,0,0,0,0,0,0,0,0,0,0,0,0,0],"id":19,"left_children":[1,3,5,7,9,11,13,15,17,19,21,23,-1,25,27,-1,-1,-1,-1,-1,-1,-1,-1,-1,-1,-1,-1,-1,-1],"loss_changes":[6.1310905E1,4.917276E1,1.9206848E1,2.9730019E1,2.4311014E1,7.87418E0,1.3740305E1,2.3354023E1,2.2269653E1,1.1547302E1,2.4938614E1,3.596325E0,0E0,1.4832573E1,1.2279629E1,0E0,0E0,0E0,0E0,0E0,0E0,0E0,0E0,0E0,0E0,0E0,0E0,0E0,0E0],"parents":[2147483647,0,0,1,1,2,2,3,3,4,4,5,5,6,6,7,7,8,8,9,9,10,10,11,11,13,13,14,14],"right_children":[2,4,6,8,10,12,14,16,18,20,22,24,-1,26,28,-1,-1,-1,-1,-1,-1,-1,-1,-1,-1,-1,-1,-1,-1],"split_conditions":[6E-1,1E0,6E0,9E0,1.9964979E0,4E1,3.2E1,1.38E2,1E0,6.2E0,2.2034721E0,6E0,6.630638E-2,3.1569952E-1,3.62E0,4.6185415E-2,4.628487E-3,5.660516E-2,1.5938334E-2,-1.8271504E-2,2.122933E-2,1.5643486E-1,3.0988883E-3,-3.4287643E-2,3.3371372E-3,8.8695854E-2,3.5144722E-3,-3.5393783E-3,-2.3090957E-2],"split_indices":[23,21,18,18,11,31,27,47,22,37,50,16,0,10,29,0,0,0,0,0,0,0,0,0,0,0,0,0,0],"split_type":[0,0,0,0,0,0,0,0,0,0,0,0,0,0,0,0,0,0,0,0,0,0,0,0,0,0,0,0,0],"sum_hessian":[1.7582848E3,1.2674213E3,4.9086353E2,4.3221957E2,8.3520166E2,1.3706512E2,3.537984E2,2.950401E2,1.3717947E2,2.4048209E2,5.947196E2,1.3591571E2,1.1494137E0,2.6334814E1,3.274636E2,3.7982677E1,2.570574E2,7.44994E1,6.2680077E1,2.2112807E2,1.935401E1,1.6642036E0,5.930554E2,1.2941718E2,6.498529E0,5.849135E0,2.0485678E1,1.8729155E2,1.4017204E2],"tree_param":{"num_deleted":"0","num_feature":"51","num_nodes":"29","size_leaf_vector":"1"}},{"base_weights":[1.9776514E-2,-3.5584027E-1,1.1993763E-1,-5.770115E-1,-8.916253E-2,-7.358792E-2,2.9623547E-1,-6.3149023E-1,3.3309102E-1,-3.1726027E-1,1.9617541E-1,-1.6353026E-1,2.9805475E-1,4.6788624E-1,3.5534523E-2,1.2832771E-2,-3.3535045E-2,-4.539886E-3,1.2465183E-1,8.512414E-3,-2.2032924E-2,-4.9976207E-4,8.055435E-2,-3.1823614E-3,-2.5528178E-2,-6.8235444E-4,3.5362E-2,2.9238058E-2,-1.7820479E-3,-9.090821E-4,7.126048E-2],"categories":[],"categories_nodes":[],"categories_segments":[],"categories_sizes":[],"default_left":[0,0,0,0,0,0,0,0,0,0,0,0,0,0,0,0,0,0,0,0,0,0,0,0,0,0,0,0,0,0,0],"id":20,"left_children":[1,3,5,7,9,11,13,15,17,19,21,23,25,27,29,-1,-1,-1,-1,-1,-1,-1,-1,-1,-1,-1,-1,-1,-1,-1,-1],"loss_changes":[6.573471E1,2.164439E1,4.7079437E1,1.0170929E1,1.0993095E1,2.2053473E1,3.229039E1,6.7851334E0,1.1214209E1,5.7128572E0,2.1961662E1,1.8362164E1,1.6415398E1,2.5634773E1,2.150283E1,0E0,0E0,0E0,0E0,0E0,0E0,0E0,0E0,0E0,0E0,0E0,0E0,0E0,0E0,0E0,0E0],"parents":[2147483647,0,0,1,1,2,2,3,3,4,4,5,5,6,6,7,7,8,8,9,9,10,10,11,11,12,12,13,13,14,14],"right_children":[2,4,6,8,10,12,14,16,18,20,22,24,26,28,30,-1,-1,-1,-1,-1,-1,-1,-1,-1,-1,-1,-1,-1,-1,-1,-1],"split_conditions":[6E0,1.55E1,5.19E3,8.2046646E1,1.1957297E3,1.8E1,8.033115E1,4.7899315E1,8.572209E-2,7.1180553E0,3E0,1.75E2,2.2494714E0,1.6E2,9.66008E-1,1.2832771E-2,-3.3535045E-2,-4.539886E-3,1.2465183E-1,8.512414E-3,-2.2032924E-2,-4.9976207E-4,8.055435E-2,-3.1823614E-3,-2.5528178E-2,-6.8235444E-4,3.5362E-2,2.9238058E-2,-1.7820479E-3,-9.090821E-4,7.126048E-2],"split_indices":[18,48,36,11,5,48,25,25,7,50,16,27,3,27,10,0,0,0,0,0,0,0,0,0,0,0,0,0,0,0,0],"split_type":[0,0,0,0,0,0,0,0,0,0,0,0,0,0,0,0,0,0,0,0,0,0,0,0,0,0,0,0,0,0,0],"sum_hessian":[1.7450978E3,3.6684186E2,1.3782559E3,1.998943E2,1.6694757E2,6.5730365E2,7.209523E2,1.8889328E2,1.1001015E1,9.271766E1,7.422991E1,5.296753E2,1.2762832E2,4.342431E2,2.8670917E2,7.7523484E0,1.8114093E2,9.997058E0,1.0039569E0,1.8651525E1,7.406613E1,6.5655945E1,8.573972E0,4.1221506E2,1.17460236E2,7.299224E1,5.4636078E1,3.5230695E2,8.193614E1,2.7698938E2,9.719765E0],"tree_param":{"num_deleted":"0","num_feature":"51","num_nodes":"31","size_leaf_vector":"1"}},{"base_weights":[3.8312383E-3,-2.0163767E-1,1.895193E-1,-3.8423845E-1,1.4135017E-2,4.9009702E-1,6.404718E-2,-4.0390328E-1,1.0657967E0,1.1452646E0,-2.144164E-2,6.7944604E-1,-2.9722368E-2,-1.3308272E-2,6.4988035E-1,-2.272875E-2,3.35868E-3,9.0601325E-2,-5.639965E-3,2.9197982E-2,1.4587435E-1,-5.434297E-3,2.1598091E-2,5.7388242E-2,1.2118582E-2,-1.0187358E-2,4.6631556E-2,2.1517381E-2,-4.5600506E-3,4.5316048E-2,5.8649795E-4],"categories":[],"categories_nodes":[],"categories_segments":[],"categories_sizes":[],"default_left":[0,0,0,0,0,0,0,0,0,0,0,0,0,0,0,0,0,0,0,0,0,0,0,0,0,0,0,0,0,0,0],"id":21,"left_children":[1,3,5,7,9,11,13,15,17,19,21,23,25,27,29,-1,-1,-1,-1,-1,-1,-1,-1,-1,-1,-1,-1,-1,-1,-1,-1],"loss_changes":[6.672715E1,3.271759E1,3.4615673E1,1.3254364E1,1.5377768E1,2.6635033E1,2.9432123E1,1.0639351E1,5.738465E0,9.887492E0,1.4717468E1,4.0300667E1,1.2441622E1,1.9893364E1,1.2386116E1,0E0,0E0,0E0,0E0,0E0,0E0,0E0,0E0,0E0,0E0,0E0,0E0,0E0,0E0,0E0,0E0],"parents":[2147483647,0,0,1,1,2,2,3,3,4,4,5,5,6,6,7,7,8,8,9,9,10,10,11,11,12,12,13,13,14,14],"right_children":[2,4,6,8,10,12,14,16,18,20,22,24,26,28,30,-1,-1,-1,-1,-1,-1,-1,-1,-1,-1,-1,-1,-1,-1,-1,-1],"split_conditions":[4.515E3,1.57E1,1E0,1.3E1,7.8E1,9.180702E1,5.9E1,7.721242E1,8.2E-1,1.49E2,1.559843E3,8E-1,9.4885305E-2,5.7E1,2.79E2,-2.272875E-2,3.35868E-3,9.0601325E-2,-5.639965E-3,2.9197982E-2,1.4587435E-1,-5.434297E-3,2.1598091E-2,5.7388242E-2,1.2118582E-2,-1.0187358E-2,4.6631556E-2,2.1517381E-2,-4.5600506E-3,4.5316048E-2,5.8649795E-4],"split_indices":[36,48,21,18,47,25,26,14,40,35,5,22,15,25,47,0,0,0,0,0,0,0,0,0,0,0,0,0,0,0,0],"split_type":[0,0,0,0,0,0,0,0,0,0,0,0,0,0,0,0,0,0,0,0,0,0,0,0,0,0,0,0,0,0,0],"sum_hessian":[1.7469288E3,8.2925244E2,9.1767633E2,4.4872858E2,3.8052386E2,2.6940082E2,6.482756E2,4.434363E2,5.292265E0,1.0652277E1,3.6987158E2,1.9724529E2,7.215552E1,5.735229E2,7.475267E1,4.0040182E2,4.303448E1,2.9114387E0,2.3808265E0,9.099694E0,1.552583E0,3.1082303E2,5.9048557E1,9.443432E1,1.02810974E2,6.1773197E1,1.0382319E1,8.497925E1,4.885436E2,5.3024544E1,2.1728128E1],"tree_param":{"num_deleted":"0","num_feature":"51","num_nodes":"31","size_leaf_vector":"1"}},{"base_weights":[-3.9624753E-3,1.0497328E-1,-2.9019657E-1,-4.668423E-1,1.6763315E-1,-8.925861E-2,-4.370957E-1,3.6639625E-1,-6.232901E-1,2.8869495E-1,-9.226522E-2,-1.16588645E-1,1.05482176E-1,-5.066505E-1,2.4314588E-1,4.5289345E-2,-3.6351748E-2,-3.2854963E-2,6.367465E-2,1.9569492E-2,-7.4495375E-3,-2.039283E-2,2.0259495E-3,-1.9710083E-2,2.3965081E-3,-2.6586762E-2,2.5192386E-2,6.497994E-2,-4.8126336E-3],"categories":[],"categories_nodes":[],"categories_segments":[],"categories_sizes":[],"default_left":[0,0,0,0,0,0,0,0,0,0,0,0,0,0,0,0,0,0,0,0,0,0,0,0,0,0,0,0,0],"id":22,"left_children":[1,3,5,7,9,11,13,15,17,19,21,23,-1,25,27,-1,-1,-1,-1,-1,-1,-1,-1,-1,-1,-1,-1,-1,-1],"loss_changes":[5.4646114E1,4.5562363E1,1.4221401E1,1.6605661E1,3.6046757E1,1.2582882E1,1.3315704E1,1.2743027E1,7.6436234E0,3.517428E1,1.5293498E1,9.323041E0,0E0,6.6882706E0,9.64168E0,0E0,0E0,0E0,0E0,0E0,0E0,0E0,0E0,0E0,0E0,0E0,0E0,0E0,0E0],"parents":[2147483647,0,0,1,1,2,2,3,3,4,4,5,5,6,6,7,7,8,8,9,9,10,10,11,11,13,13,14,14],"right_children":[2,4,6,8,10,12,14,16,18,20,22,24,-1,26,28,-1,-1,-1,-1,-1,-1,-1,-1,-1,-1,-1,-1,-1,-1],"split_conditions":[6E-1,5E0,1.09E1,9.3E1,9.01E1,9.3387514E-1,2.1071E4,1.24E1,1.4E1,1.6E2,1.5E1,9.571146E0,1.05482176E-1,1.2E1,2.4285427E-1,4.5289345E-2,-3.6351748E-2,-3.2854963E-2,6.367465E-2,1.9569492E-2,-7.4495375E-3,-2.039283E-2,2.0259495E-3,-1.9710083E-2,2.3965081E-3,-2.6586762E-2,2.5192386E-2,6.497994E-2,-4.8126336E-3],"split_indices":[23,18,42,33,25,7,36,42,16,27,48,2,0,18,3,0,0,0,0,0,0,0,0,0,0,0,0,0,0],"split_type":[0,0,0,0,0,0,0,0,0,0,0,0,0,0,0,0,0,0,0,0,0,0,0,0,0,0,0,0,0],"sum_hessian":[1.7505612E3,1.2684458E3,4.8211533E2,1.24632835E2,1.143813E3,2.0428668E2,2.7782864E2,1.9489595E1,1.0514324E2,7.8025574E2,3.6355728E2,2.0271414E2,1.572544E0,2.5228741E2,2.554124E1,1.3166272E1,6.323324E0,1.0394407E2,1.199174E0,6.320602E2,1.4819553E2,1.0705221E2,2.565051E2,7.4911156E1,1.2780298E2,2.4663861E2,5.648801E0,5.522407E0,2.0018835E1],"tree_param":{"num_deleted":"0","num_feature":"51","num_nodes":"29","size_leaf_vector":"1"}},{"base_weights":[-1.9019231E-4,-4.831074E-1,5.8540184E-2,2.0679797E-1,-6.025297E-1,-2.1983677E-1,1.4520524E-1,9.514593E-1,-3.2222492E-1,-6.1831486E-1,4.5306332E-2,-1.0480111E-1,-5.275705E-1,2.3133102E-1,-1.22707546E-1,9.991467E-4,1.2876008E-1,4.748699E-2,-3.0154128E-2,5.5324294E-2,-3.225324E-2,7.920356E-3,-1.2760708E-2,2.7417168E-3,-3.006236E-2,2.2706075E-3,2.0197783E-2,1.1689519E-2,-1.2078694E-2],"categories":[],"categories_nodes":[],"categories_segments":[],"categories_sizes":[],"default_left":[0,0,0,0,0,0,0,0,0,0,0,0,0,0,0,0,0,0,0,0,0,0,0,0,0,0,0,0,0],"id":23,"left_children":[1,3,5,7,9,11,13,15,17,19,-1,21,23,25,27,-1,-1,-1,-1,-1,-1,-1,-1,-1,-1,-1,-1,-1,-1],"loss_changes":[5.008566E1,1.5900677E1,3.8016907E1,1.17304535E1,4.45348E0,1.3191336E1,2.7746866E1,1.8548382E1,6.896368E0,8.205814E0,0E0,1.0873196E1,4.3913326E0,2.9167843E1,1.2467602E1,0E0,0E0,0E0,0E0,0E0,0E0,0E0,0E0,0E0,0E0,0E0,0E0,0E0,0E0],"parents":[2147483647,0,0,1,1,2,2,3,3,4,4,5,5,6,6,7,7,8,8,9,9,11,11,12,12,13,13,14,14],"right_children":[2,4,6,8,10,12,14,16,18,20,-1,22,24,26,28,-1,-1,-1,-1,-1,-1,-1,-1,-1,-1,-1,-1,-1,-1],"split_conditions":[5E0,9.3E1,1.44E1,3.61E1,2.38E1,9.01E1,6E-1,9.74E1,1.38E1,7.4E1,4.5306332E-2,3.23E1,3.8E0,1.7433839E0,7.4E0,9.991467E-4,1.2876008E-1,4.748699E-2,-3.0154128E-2,5.5324294E-2,-3.225324E-2,7.920356E-3,-1.2760708E-2,2.7417168E-3,-3.006236E-2,2.2706075E-3,2.0197783E-2,1.1689519E-2,-1.2078694E-2],"split_indices":[18,33,48,41,48,25,23,25,28,35,0,44,37,3,42,0,0,0,0,0,0,0,0,0,0,0,0,0,0],"split_type":[0,0,0,0,0,0,0,0,0,0,0,0,0,0,0,0,0,0,0,0,0,0,0,0,0,0,0,0,0],"sum_hessian":[1.7639509E3,1.9048018E2,1.5734708E3,2.79988E1,1.6248137E2,3.731948E2,1.200276E3,1.1297596E1,1.6701204E1,1.6138297E2,1.0984081E0,2.7262418E2,1.0057061E2,9.083922E2,2.918838E2,7.8224654E0,3.4751303E0,2.58998E0,1.4111224E1,1.8482133E0,1.5953476E2,9.912024E1,1.7350394E2,1.1322609E1,8.9248E1,4.3796335E2,4.704289E2,7.27447E1,2.1913908E2],"tree_param":{"num_deleted":"0","num_feature":"51","num_nodes":"29","size_leaf_vector":"1"}},{"base_weights":[9.281327E-3,-3.146789E-1,9.1858126E-2,-5.1106006E-1,-9.402096E-2,2.7202556E-1,-4.339635E-2,-5.340983E-1,7.3500894E-2,-1.2944403E-1,1.7118671E0,3.4373587E-1,-3.1525278E-1,-1.616093E-1,1.8548389E-1,-2.929984E-2,7.861331E-3,4.3704674E-2,-9.844364E-3,1.2774463E-1,-1.654913E-3,2.7843598E-2,8.57917E-3,2.9376423E-2,-2.472163E-2,-1.1691054E-2,2.6221246E-2,1.581207E-2,-1.5753489E-2],"categories":[],"categories_nodes":[],"categories_segments":[],"categories_sizes":[],"default_left":[0,0,0,0,0,0,0,0,0,0,0,0,0,0,0,0,0,0,0,0,0,0,0,0,0,0,0,0,0],"id":24,"left_children":[1,3,5,7,9,11,13,15,-1,17,19,21,23,25,27,-1,-1,-1,-1,-1,-1,-1,-1,-1,-1,-1,-1,-1,-1],"loss_changes":[4.688061E1,1.5377079E1,3.403977E1,9.370995E0,1.1022809E1,2.5331161E1,2.1634027E1,6.7903214E0,0E0,1.1443111E1,4.9663763E0,1.9506111E1,1.0917353E1,2.6233309E1,1.7929214E1,0E0,0E0,0E0,0E0,0E0,0E0,0E0,0E0,0E0,0E0,0E0,0E0,0E0,0E0],"parents":[2147483647,0,0,1,1,2,2,3,3,4,4,5,5,6,6,7,7,9,9,10,10,11,11,12,12,13,13,14,14],"right_children":[2,4,6,8,10,12,14,16,-1,18,20,22,24,26,28,-1,-1,-1,-1,-1,-1,-1,-1,-1,-1,-1,-1,-1,-1],"split_conditions":[6E0,1.55E1,3.4E0,7.2263885E1,8.3E1,1.119465E2,9.46E1,3.4E1,7.3500894E-2,5.23E1,2.8574E4,3.16E1,1.3E2,6.6E1,1.67E2,-2.929984E-2,7.861331E-3,4.3704674E-2,-9.844364E-3,1.2774463E-1,-1.654913E-3,2.7843598E-2,8.57917E-3,2.9376423E-2,-2.472163E-2,-1.1691054E-2,2.6221246E-2,1.581207E-2,-1.5753489E-2],"split_indices":[18,48,29,50,38,25,45,31,0,25,36,44,47,26,27,0,0,0,0,0,0,0,0,0,0,0,0,0,0],"split_type":[0,0,0,0,0,0,0,0,0,0,0,0,0,0,0,0,0,0,0,0,0,0,0,0,0,0,0,0,0],"sum_hessian":[1.7503608E3,3.5496667E2,1.3953942E3,1.8711871E2,1.6784796E2,5.9791833E2,7.974758E2,1.856897E2,1.4290184E0,1.6552937E2,2.3185894E0,5.332232E2,6.469515E1,5.260654E2,2.7141043E2,1.7286491E2,1.2824788E1,9.670751E0,1.5585863E2,1.2503642E0,1.0682254E0,2.372533E2,2.9596988E2,1.0336526E1,5.4358627E1,4.7656183E2,4.9503593E1,2.154877E2,5.5922718E1],"tree_param":{"num_deleted":"0","num_feature":"51","num_nodes":"29","size_leaf_vector":"1"}},{"base_weights":[1.978309E-2,-3.3961228E-1,1.11504935E-1,-4.293522E-1,2.841048E-1,-9.0902045E-2,2.3504862E-1,-4.5419085E-1,7.0448315E-1,4.6272346E-1,-5.331221E-1,-1.5675606E-1,3.962117E-1,4.426613E-1,1.1176609E-1,-2.401241E-2,3.672212E-2,-3.333273E-2,6.902603E-2,1.0767241E-1,9.651966E-3,3.7534934E-2,-4.313894E-2,-9.160834E-3,6.905881E-2,4.5523383E-2,3.816545E-3,4.5294683E-2,1.5259869E-2,1.0792957E-2,-5.878179E-3],"categories":[],"categories_nodes":[],"categories_segments":[],"categories_sizes":[],"default_left":[0,0,0,0,0,0,0,0,0,0,0,0,0,0,0,0,0,0,0,0,0,0,0,0,0,0,0,0,0,0,0],"id":25,"left_children":[1,3,5,7,9,11,13,15,17,19,21,23,25,27,29,-1,-1,-1,-1,-1,-1,-1,-1,-1,-1,-1,-1,-1,-1,-1,-1],"loss_changes":[5.7434547E1,1.9951004E1,3.4727505E1,9.053394E0,6.839054E0,1.6960155E1,2.2016834E1,9.770336E0,7.44573E0,1.6726997E1,4.2725906E0,1.9166107E1,1.0296995E1,2.0155758E1,1.2970089E1,0E0,0E0,0E0,0E0,0E0,0E0,0E0,0E0,0E0,0E0,0E0,0E0,0E0,0E0,0E0,0E0],"parents":[2147483647,0,0,1,1,2,2,3,3,4,4,5,5,6,6,7,7,8,8,9,9,10,10,11,11,12,12,13,13,14,14],"right_children":[2,4,6,8,10,12,14,16,18,20,22,24,26,28,30,-1,-1,-1,-1,-1,-1,-1,-1,-1,-1,-1,-1,-1,-1,-1,-1],"split_conditions":[6E0,3E0,3.793E3,4E1,1.747508E1,6.66E1,9.726808E-2,1.4847194E2,8.88E0,2E1,7E-1,1.4E1,1.122E1,6.4E1,6.6670586E1,-2.401241E-2,3.672212E-2,-3.333273E-2,6.902603E-2,1.0767241E-1,9.651966E-3,3.7534934E-2,-4.313894E-2,-9.160834E-3,6.905881E-2,4.5523383E-2,3.816545E-3,4.5294683E-2,1.5259869E-2,1.0792957E-2,-5.878179E-3],"split_indices":[18,16,36,31,1,26,13,11,32,31,34,18,42,25,0,0,0,0,0,0,0,0,0,0,0,0,0,0,0,0,0],"split_type":[0,0,0,0,0,0,0,0,0,0,0,0,0,0,0,0,0,0,0,0,0,0,0,0,0,0,0,0,0,0,0],"sum_hessian":[1.7401714E3,3.5326483E2,1.3869066E3,3.0910297E2,4.416186E1,5.2577344E2,8.611332E2,3.0306323E2,6.0397186E0,3.6596806E1,7.5650573E0,4.6375546E2,6.201796E1,3.1986954E2,5.412637E2,2.9714517E2,5.918074E0,1.9990758E0,4.0406427E0,4.0735455E0,3.252326E1,1.2846969E0,6.28036E0,4.5677734E2,6.978131E0,2.3075075E1,3.8942883E1,7.192002E1,2.4794952E2,3.7232404E2,1.6893964E2],"tree_param":{"num_deleted":"0","num_feature":"51","num_nodes":"31","size_leaf_vector":"1"}},{"base_weights":[-8.696049E-3,9.45667E-2,-2.9107028E-1,2.0976554E-1,-1.4025015E-1,-3.16459E-1,1.1361262E0,3.006103E-2,3.5897148E-1,-2.2923602E-1,2.7361256E-1,-4.869613E-1,-1.1262049E-1,2.4660666E0,-2.1555957E-1,-1.1894593E-2,1.12158945E-2,3.0004427E-2,8.723433E-3,-1.5414931E-2,1.6641147E-2,1.2377576E-1,9.183839E-3,-2.5163202E-2,5.6571152E-2,-1.2243029E-2,2.0345956E-2,3.4309324E-2,1.8280429E-1,-3.6819227E-2,3.6707606E-2],"categories":[],"categories_nodes":[],"categories_segments":[],"categories_sizes":[],"default_left":[0,0,0,0,0,0,0,0,0,0,0,0,0,0,0,0,0,0,0,0,0,0,0,0,0,0,0,0,0,0,0],"id":26,"left_children":[1,3,5,7,9,11,13,15,17,19,21,23,25,27,29,-1,-1,-1,-1,-1,-1,-1,-1,-1,-1,-1,-1,-1,-1,-1,-1],"loss_changes":[5.1138557E1,3.476902E1,1.7375721E1,2.3101147E1,1.56510935E1,1.600835E1,1.5678409E1,2.0463457E1,2.0842178E1,1.560766E1,1.4468885E1,7.2015915E0,1.4652072E1,6.6572266E0,3.0624475E0,0E0,0E0,0E0,0E0,0E0,0E0,0E0,0E0,0E0,0E0,0E0,0E0,0E0,0E0,0E0,0E0],"parents":[2147483647,0,0,1,1,2,2,3,3,4,4,5,5,6,6,7,7,8,8,9,9,10,10,11,11,12,12,13,13,14,14],"right_children":[2,4,6,8,10,12,14,16,18,20,22,24,26,28,30,-1,-1,-1,-1,-1,-1,-1,-1,-1,-1,-1,-1,-1,-1,-1,-1],"split_conditions":[6E-1,9.01E1,9.0698934E-1,1.0857769E3,1E1,5.419E3,8.3E1,5.19E3,3.16E1,2.5448786E1,7.733349E-3,1.4E1,5.16E1,8E-1,5.3895608E-2,-1.1894593E-2,1.12158945E-2,3.0004427E-2,8.723433E-3,-1.5414931E-2,1.6641147E-2,1.2377576E-1,9.183839E-3,-2.5163202E-2,5.6571152E-2,-1.2243029E-2,2.0345956E-2,3.4309324E-2,1.8280429E-1,-3.6819227E-2,3.6707606E-2],"split_indices":[23,25,7,5,18,36,27,36,44,3,10,18,26,17,10,0,0,0,0,0,0,0,0,0,0,0,0,0,0,0,0],"split_type":[0,0,0,0,0,0,0,0,0,0,0,0,0,0,0,0,0,0,0,0,0,0,0,0,0,0,0,0,0,0,0],"sum_hessian":[1.7518544E3,1.2832439E3,4.6861035E2,8.6096814E2,4.222758E2,4.611845E2,7.4258504E0,3.9111203E2,4.6985614E2,3.4791553E2,7.436026E1,2.5037091E2,2.1081361E2,3.3274717E0,4.0983787E0,1.642816E2,2.2683041E2,2.0270245E2,2.671537E2,3.0540668E2,4.250885E1,1.8771256E0,7.248313E1,2.4855612E2,1.8147869E0,1.684629E2,4.2350704E1,1.9650364E0,1.3624352E0,2.7919097E0,1.3064691E0],"tree_param":{"num_deleted":"0","num_feature":"51","num_nodes":"31","size_leaf_vector":"1"}},{"base_weights":[5.2902102E-3,-1.1829653E-1,1.9788958E-1,-1.9281624E-1,2.832454E-1,3.9352235E-1,4.077515E-2,-2.8764498E-1,4.0401474E-2,7.9169273E-1,4.6587016E-2,3.080335E-1,1.0930364E0,-8.314141E-3,9.397717E-1,5.5024587E-3,-1.7498164E-2,5.979864E-2,-4.5170457E-4,1.2716128E-1,2.8232003E-2,2.9878363E-2,-7.5832168E-3,2.7648164E-2,9.3237136E-4,1.6595086E-2,1.15725756E-1,-6.7166695E-3,1.9720955E-2,-6.5055424E-3,7.634722E-2],"categories":[],"categories_nodes":[],"categories_segments":[],"categories_sizes":[],"default_left":[0,0,0,0,0,0,0,0,0,0,0,0,0,0,0,0,0,0,0,0,0,0,0,0,0,0,0,0,0,0,0],"id":27,"left_children":[1,3,5,7,9,11,13,15,17,19,21,23,25,27,29,-1,-1,-1,-1,-1,-1,-1,-1,-1,-1,-1,-1,-1,-1,-1,-1],"loss_changes":[4.249133E1,3.2593185E1,2.143033E1,2.0309334E1,2.049385E1,1.8241058E1,1.7134338E1,1.6212563E1,1.5216965E1,2.0091015E1,1.292463E1,1.9709852E1,3.032077E1,1.8779522E1,1.2827267E1,0E0,0E0,0E0,0E0,0E0,0E0,0E0,0E0,0E0,0E0,0E0,0E0,0E0,0E0,0E0,0E0],"parents":[2147483647,0,0,1,1,2,2,3,3,4,4,5,5,6,6,7,7,8,8,9,9,10,10,11,11,12,12,13,13,14,14],"right_children":[2,4,6,8,10,12,14,16,18,20,22,24,26,28,30,-1,-1,-1,-1,-1,-1,-1,-1,-1,-1,-1,-1,-1,-1,-1,-1],"split_conditions":[3.9E1,1E1,3.38E0,1.67E1,9.9E1,2.01E2,5.3E1,5E0,8.7E1,1.7319093E-2,1.1E0,8.2508385E1,9E0,3.1E1,1.03E2,5.5024587E-3,-1.7498164E-2,5.979864E-2,-4.5170457E-4,1.2716128E-1,2.8232003E-2,2.9878363E-2,-7.5832168E-3,2.7648164E-2,9.3237136E-4,1.6595086E-2,1.15725756E-1,-6.7166695E-3,1.9720955E-2,-6.5055424E-3,7.634722E-2],"split_indices":[38,18,29,48,33,30,17,42,47,13,34,25,18,43,35,0,0,0,0,0,0,0,0,0,0,0,0,0,0,0,0],"split_type":[0,0,0,0,0,0,0,0,0,0,0,0,0,0,0,0,0,0,0,0,0,0,0,0,0,0,0,0,0,0,0],"sum_hessian":[1.7831619E3,1.0864176E3,6.967442E2,9.1679504E2,1.6962257E2,3.0966135E2,3.870829E2,6.516102E2,2.651848E2,5.3130142E1,1.16492424E2,2.7722192E2,3.2439423E1,3.6798026E2,1.910264E1,8.817047E1,5.6343976E2,9.927764E0,2.5525706E2,4.9263315E0,4.820381E1,3.0291655E1,8.6200775E1,1.4965042E2,1.27571495E2,2.0769274E1,1.1670147E1,2.8078598E2,8.719428E1,7.044792E0,1.2057848E1],"tree_param":{"num_deleted":"0","num_feature":"51","num_nodes":"31","size_leaf_vector":"1"}},{"base_weights":[-1.1277899E-2,-1.3820851E-1,1.8977574E-1,-6.43202E-2,-4.4653276E-1,-8.810233E-2,3.0876708E-1,-4.7845185E-1,1.8840333E-3,-6.761639E-1,-1.6964625E-1,-5.790343E-1,2.2690246E-2,2.1039547E-1,6.8041575E-1,-2.6716886E-2,3.572218E-2,7.6486054E-3,-1.4240702E-2,4.434573E-2,-3.534768E-2,-1.2237423E-2,6.797662E-2,-3.2366723E-2,4.30706E-2,1.1452967E-2,-1.4837339E-2,-6.7561083E-3,1.5472933E-2,5.7500035E-2,1.6167393E-2],"categories":[],"categories_nodes":[],"categories_segments":[],"categories_sizes":[],"default_left":[0,0,0,0,0,0,0,0,0,0,0,0,0,0,0,0,0,0,0,0,0,0,0,0,0,0,0,0,0,0,0],"id":28,"left_children":[1,3,5,7,9,11,13,15,17,19,21,23,25,27,29,-1,-1,-1,-1,-1,-1,-1,-1,-1,-1,-1,-1,-1,-1,-1,-1],"loss_changes":[4.5159252E1,2.4682272E1,2.26719E1,2.4023127E1,1.32070465E1,1.1224E1,1.739592E1,8.432718E0,3.2808525E1,6.1230507E0,1.1394829E1,4.295023E0,1.1217042E1,1.3075195E1,1.6388462E1,0E0,0E0,0E0,0E0,0E0,0E0,0E0,0E0,0E0,0E0,0E0,0E0,0E0,0E0,0E0,0E0],"parents":[2147483647,0,0,1,1,2,2,3,3,4,4,5,5,6,6,7,7,8,8,9,9,10,10,11,11,12,12,13,13,14,14],"right_children":[2,4,6,8,10,12,14,16,18,20,22,24,26,28,30,-1,-1,-1,-1,-1,-1,-1,-1,-1,-1,-1,-1,-1,-1,-1,-1],"split_conditions":[3.9E1,1.75E2,1.9964979E0,5E0,8.62E1,1.9631642E0,1.56E2,5.263876E-1,8.672679E1,7E0,4.53E1,4E0,8.7497894E1,7E0,2.7849533E-2,-2.6716886E-2,3.572218E-2,7.6486054E-3,-1.4240702E-2,4.434573E-2,-3.534768E-2,-1.2237423E-2,6.797662E-2,-3.2366723E-2,4.30706E-2,1.1452967E-2,-1.4837339E-2,-6.7561083E-3,1.5472933E-2,5.7500035E-2,1.6167393E-2],"split_indices":[38,27,11,18,30,14,30,9,25,28,41,16,25,18,7,0,0,0,0,0,0,0,0,0,0,0,0,0,0,0,0],"split_type":[0,0,0,0,0,0,0,0,0,0,0,0,0,0,0,0,0,0,0,0,0,0,0,0,0,0,0,0,0,0,0],"sum_hessian":[1.7675452E3,1.083693E3,6.838522E2,8.751713E2,2.0852164E2,2.0511375E2,4.787384E2,1.1976578E2,7.554056E2,1.1319952E2,9.532213E1,3.698842E1,1.6812534E2,3.7978052E2,9.89579E1,1.1493334E2,4.8324313E0,4.9500662E2,2.6039896E2,1.6496032E0,1.1154991E2,9.166038E1,3.6617486E0,3.583965E1,1.148769E0,1.0231116E2,6.581418E1,8.454301E1,2.952375E2,4.178508E1,5.7172825E1],"tree_param":{"num_deleted":"0","num_feature":"51","num_nodes":"31","size_leaf_vector":"1"}},{"base_weights":[7.3363907E-3,-3.1315878E-1,8.483144E-2,-5.120303E-1,-9.6194424E-2,1.8367746E-1,-1.1498699E-1,-5.392646E-1,1.0084008E0,8.618171E-1,-1.6548087E-1,2.9918337E-1,-4.8660066E-2,-1.6579105E-1,6.342035E-1,2.3071794E-2,-2.9028973E-2,-8.564041E-3,9.477476E-2,-1.16388425E-2,7.7363424E-2,-1.3247575E-2,2.1887338E-2,2.1134606E-2,1.8335695E-3,6.5877545E-3,-2.3011865E-2,8.205351E-2,-8.974379E-3,1.6886365E-2,1.2184395E-1],"categories":[],"categories_nodes":[],"categories_segments":[],"categories_sizes":[],"default_left":[0,0,0,0,0,0,0,0,0,0,0,0,0,0,0,0,0,0,0,0,0,0,0,0,0,0,0,0,0,0,0],"id":29,"left_children":[1,3,5,7,9,11,13,15,17,19,21,23,25,27,29,-1,-1,-1,-1,-1,-1,-1,-1,-1,-1,-1,-1,-1,-1,-1,-1],"loss_changes":[4.3633038E1,1.4710827E1,2.7962063E1,7.9247856E0,1.1083537E1,2.542419E1,1.7948757E1,7.534706E0,3.971804E0,8.821995E0,9.389597E0,2.0493923E1,2.3470888E1,1.1179231E1,1.5199249E1,0E0,0E0,0E0,0E0,0E0,0E0,0E0,0E0,0E0,0E0,0E0,0E0,0E0,0E0,0E0,0E0],"parents":[2147483647,0,0,1,1,2,2,3,3,4,4,5,5,6,6,7,7,8,8,9,9,10,10,11,11,12,12,13,13,14,14],"right_children":[2,4,6,8,10,12,14,16,18,20,22,24,26,28,30,-1,-1,-1,-1,-1,-1,-1,-1,-1,-1,-1,-1,-1,-1,-1,-1],"split_conditions":[6E0,1.56E1,8.7815414E1,6.285764E1,5.23E1,3.7E0,2.11E2,4.61E1,6.58E1,3E1,3.12E1,6.291892E1,1.29E2,4.2E1,1.13E2,2.3071794E-2,-2.9028973E-2,-8.564041E-3,9.477476E-2,-1.16388425E-2,7.7363424E-2,-1.3247575E-2,2.1887338E-2,2.1134606E-2,1.8335695E-3,6.5877545E-3,-2.3011865E-2,8.205351E-2,-8.974379E-3,1.6886365E-2,1.2184395E-1],"split_indices":[18,48,25,50,25,29,30,25,27,44,43,0,27,47,27,0,0,0,0,0,0,0,0,0,0,0,0,0,0,0,0],"split_type":[0,0,0,0,0,0,0,0,0,0,0,0,0,0,0,0,0,0,0,0,0,0,0,0,0,0,0,0,0,0,0],"sum_hessian":[1.7547212E3,3.4108008E2,1.4136411E3,1.7725058E2,1.638295E2,9.4583624E2,4.678048E2,1.7476546E2,2.4851227E0,1.0278063E1,1.5355142E2,6.3156696E2,3.1426932E2,4.3882587E2,2.897893E1,6.5260854E0,1.6823938E2,1.4129988E0,1.072124E0,4.212132E0,6.0659304E0,1.3229681E2,2.1254616E1,4.2907983E2,2.0248712E2,2.189655E2,9.5303795E1,2.40751E0,4.3641837E2,2.5905706E1,3.0732224E0],"tree_param":{"num_deleted":"0","num_feature":"51","num_nodes":"31","size_leaf_vector":"1"}},{"base_weights":[-1.3108222E-3,-2.8950074E-1,7.8205355E-2,-4.8555255E-1,-8.981217E-2,1.9574474E-1,-1.0068805E-1,-9.534267E-2,-5.892697E-1,6.528562E-2,-7.5350577E-1,3.0883372E-1,-9.41819E-3,-1.5182333E-1,3.9211327E-1,-1.1773265E-2,6.948215E-2,-3.136095E-2,4.5960464E-2,3.268773E-2,-4.2628557E-3,-4.0118087E-2,2.1502627E-2,9.071798E-2,1.3961948E-2,-1.4949909E-2,6.2398794E-3,5.7297803E-2,-8.611339E-3,5.5551436E-3,5.83918E-2],"categories":[],"categories_nodes":[],"categories_segments":[],"categories_sizes":[],"default_left":[0,0,0,0,0,0,0,0,0,0,0,0,0,0,0,0,0,0,0,0,0,0,0,0,0,0,0,0,0,0,0],"id":30,"left_children":[1,3,5,7,9,11,13,15,17,19,21,23,25,27,29,-1,-1,-1,-1,-1,-1,-1,-1,-1,-1,-1,-1,-1,-1,-1,-1],"loss_changes":[4.0856834E1,1.5050522E1,2.9402302E1,7.808277E0,1.9837042E1,1.9576687E1,1.4038639E1,9.066055E0,9.35368E0,1.3941204E1,2.4552135E0,2.3726528E1,1.1726398E1,1.3524506E1,1.12992E1,0E0,0E0,0E0,0E0,0E0,0E0,0E0,0E0,0E0,0E0,0E0,0E0,0E0,0E0,0E0,0E0],"parents":[2147483647,0,0,1,1,2,2,3,3,4,4,5,5,6,6,7,7,8,8,9,9,10,10,11,11,12,12,13,13,14,14],"right_children":[2,4,6,8,10,12,14,16,18,20,22,24,26,28,30,-1,-1,-1,-1,-1,-1,-1,-1,-1,-1,-1,-1,-1,-1,-1,-1],"split_conditions":[1.43E1,1.0607142E1,3.6E0,1.58E1,1.00697426E2,1.03E2,7.2E1,1.2E2,3.581825E1,3.16E1,7.7E1,6.8E1,7.8E1,3.15E3,1.5450215E3,-1.1773265E-2,6.948215E-2,-3.136095E-2,4.5960464E-2,3.268773E-2,-4.2628557E-3,-4.0118087E-2,2.1502627E-2,9.071798E-2,1.3961948E-2,-1.4949909E-2,6.2398794E-3,5.7297803E-2,-8.611339E-3,5.5551436E-3,5.83918E-2],"split_indices":[48,2,29,28,25,33,26,30,12,44,38,47,30,4,5,0,0,0,0,0,0,0,0,0,0,0,0,0,0,0,0],"split_type":[0,0,0,0,0,0,0,0,0,0,0,0,0,0,0,0,0,0,0,0,0,0,0,0,0,0,0,0,0,0,0],"sum_hessian":[1.7809261E3,3.8455295E2,1.3963733E3,1.9332109E2,1.9123186E2,8.426366E2,5.5373663E2,4.0997494E1,1.523236E2,1.5573901E2,3.5492836E1,5.4288477E2,2.9975186E2,5.0230692E2,5.1429714E1,3.823143E1,2.7660658E0,1.4915544E2,3.1681533E0,3.1044386E1,1.24694626E2,3.4395123E1,1.0977159E0,9.303366E0,5.335814E2,9.454234E1,2.052095E2,6.921068E0,4.9538586E2,3.859255E1,1.2837167E1],"tree_param":{"num_deleted":"0","num_feature":"51","num_nodes":"31","size_leaf_vector":"1"}},{"base_weights":[6.090367E-3,-3.6321077E-1,6.891806E-2,1.71447E-2,-4.620299E-1,1.5075669E-1,-1.8114094E-1,1.3836292E0,-1.0818716E-1,-4.8608416E-1,6.265885E-2,-2.1857029E-2,2.8394777E-1,7.935784E-2,-3.307377E-1,1.03341535E-1,-2.5350003E-2,-9.150356E-3,7.001161E-2,-3.1470057E-2,-1.3968098E-2,-1.7516135E-3,7.044689E-2,8.578043E-3,2.511743E-2,-1.3526E-2,1.642227E-2,-1.9436229E-2,9.743127E-3],"categories":[],"categories_nodes":[],"categories_segments":[],"categories_sizes":[],"default_left":[0,0,0,0,0,0,0,0,0,0,0,0,0,0,0,0,0,0,0,0,0,0,0,0,0,0,0,0,0],"id":31,"left_children":[1,3,5,7,9,11,13,15,17,19,-1,21,23,25,27,-1,-1,-1,-1,-1,-1,-1,-1,-1,-1,-1,-1,-1,-1],"loss_changes":[4.108887E1,9.685471E0,3.0997036E1,9.408685E0,9.042793E0,2.6232275E1,1.4585764E1,7.0083237E0,5.949829E0,5.817833E0,0E0,9.43276E0,1.5720173E1,1.2036628E1,7.3147526E0,0E0,0E0,0E0,0E0,0E0,0E0,0E0,0E0,0E0,0E0,0E0,0E0,0E0,0E0],"parents":[2147483647,0,0,1,1,2,2,3,3,4,4,5,5,6,6,7,7,8,8,9,9,11,11,12,12,13,13,14,14],"right_children":[2,4,6,8,10,12,14,16,18,20,-1,22,24,26,28,-1,-1,-1,-1,-1,-1,-1,-1,-1,-1,-1,-1,-1,-1],"split_conditions":[1.38E1,3.18E1,6E-1,3.4E0,6.285764E1,1.4483857E0,9.9E0,2E-1,9.2E1,1.0906863E1,6.265885E-2,1.3663097E2,9E0,4.0999135E-1,2.2435E4,1.03341535E-1,-2.5350003E-2,-9.150356E-3,7.001161E-2,-3.1470057E-2,-1.3968098E-2,-1.7516135E-3,7.044689E-2,8.578043E-3,2.511743E-2,-1.3526E-2,1.642227E-2,-1.9436229E-2,9.743127E-3],"split_indices":[48,44,23,42,50,3,42,49,38,2,0,14,18,10,36,0,0,0,0,0,0,0,0,0,0,0,0,0,0],"split_type":[0,0,0,0,0,0,0,0,0,0,0,0,0,0,0,0,0,0,0,0,0,0,0,0,0,0,0,0,0],"sum_hessian":[1.7688148E3,2.564748E2,1.51234E3,5.3062683E1,2.0341212E2,1.1397295E3,3.7261047E2,3.6144845E0,4.9448196E1,2.0130559E2,2.1065297E0,4.9676508E2,6.429644E2,1.3609406E2,2.3651643E2,2.5865917E0,1.027893E0,4.794855E1,1.4996469E0,1.1767729E2,8.3628296E1,4.9319907E2,3.5660272E0,4.2569266E2,2.1727174E2,5.65607E1,7.953335E1,2.1325003E2,2.32664E1],"tree_param":{"num_deleted":"0","num_feature":"51","num_nodes":"29","size_leaf_vector":"1"}},{"base_weights":[3.2212655E-4,-3.5456028E-2,5.3118443E-1,-2.08591E-1,8.418095E-2,1.0693308E0,9.9852055E-2,-1.0850356E-1,-4.52722E-1,2.4289109E-1,-2.3533737E-2,7.55371E-1,2.250457E0,4.6199263E-4,1.3090142E0,-1.4430803E-2,2.081524E-3,-3.940961E-2,-1.786322E-2,2.9133966E-2,3.635126E-3,4.257092E-3,-1.0156005E-2,2.5271708E-2,1.02188885E-1,1.5637015E-1,1.1559347E-2,4.1697543E-2,-6.056465E-3,1.05626725E-1,1.2620883E-2],"categories":[],"categories_nodes":[],"categories_segments":[],"categories_sizes":[],"default_left":[0,0,0,0,0,0,0,0,0,0,0,0,0,0,0,0,0,0,0,0,0,0,0,0,0,0,0,0,0,0,0],"id":32,"left_children":[1,3,5,7,9,11,13,15,17,19,21,23,25,27,29,-1,-1,-1,-1,-1,-1,-1,-1,-1,-1,-1,-1,-1,-1,-1,-1],"loss_changes":[3.3390507E1,3.4132923E1,2.5659164E1,1.6403069E1,1.6668682E1,1.657565E1,7.5369186E0,1.29607525E1,5.977791E0,2.275103E1,1.1367122E1,1.19893055E1,1.6708652E1,6.0758967E0,3.5109053E0,0E0,0E0,0E0,0E0,0E0,0E0,0E0,0E0,0E0,0E0,0E0,0E0,0E0,0E0,0E0,0E0],"parents":[2147483647,0,0,1,1,2,2,3,3,4,4,5,5,6,6,7,7,8,8,9,9,10,10,11,11,12,12,13,13,14,14],"right_children":[2,4,6,8,10,12,14,16,18,20,22,24,26,28,30,-1,-1,-1,-1,-1,-1,-1,-1,-1,-1,-1,-1,-1,-1,-1,-1],"split_conditions":[4.4E1,3.835E3,9.9E1,6E-1,8E-1,3.3E1,5.8E0,1.1402941E3,1.38E1,1E0,2E0,3.82E1,5.575624E0,4.762287E-2,7.700651E-2,-1.4430803E-2,2.081524E-3,-3.940961E-2,-1.786322E-2,2.9133966E-2,3.635126E-3,4.257092E-3,-1.0156005E-2,2.5271708E-2,1.02188885E-1,1.5637015E-1,1.1559347E-2,4.1697543E-2,-6.056465E-3,1.05626725E-1,1.2620883E-2],"split_indices":[17,36,33,23,22,44,37,5,48,21,20,41,6,9,13,0,0,0,0,0,0,0,0,0,0,0,0,0,0,0,0],"split_type":[0,0,0,0,0,0,0,0,0,0,0,0,0,0,0,0,0,0,0,0,0,0,0,0,0,0,0,0,0,0,0],"sum_hessian":[1.756026E3,1.6460233E3,1.1000268E2,6.723195E2,9.737038E2,4.8283382E1,6.1719296E1,4.778555E2,1.9446404E2,3.9315787E2,5.805459E2,3.9439377E1,8.844005E0,5.7955853E1,3.7634423E0,2.1681952E2,2.6103598E2,4.1469448E1,1.529946E2,1.3039511E2,2.6276276E2,3.6200607E2,2.1853984E2,3.4197693E1,5.2416835E0,5.7835135E0,3.0604913E0,6.6324983E0,5.1323353E1,1.5700637E0,2.1933784E0],"tree_param":{"num_deleted":"0","num_feature":"51","num_nodes":"31","size_leaf_vector":"1"}},{"base_weights":[3.1019645E-3,-1.7443588E-1,1.1922469E-1,-2.0049793E-1,1.1965255E0,5.0598997E-1,5.3484883E-2,-3.845456E-1,-6.422323E-2,2.15635E0,1.0605498E-1,4.4917357E-1,1.5378286E-1,1.2330378E-1,-2.5341195E-1,-3.1457216E-2,-1.2830049E-2,2.4415074E-2,-7.152325E-3,1.2841041E-1,-2.0365086E-3,-1.7843159E-2,7.413775E-2,7.9050854E-2,1.850952E-2,-2.036958E-2,8.644582E-3,-2.027126E-2,2.2034547E-3],"categories":[],"categories_nodes":[],"categories_segments":[],"categories_sizes":[],"default_left":[0,0,0,0,0,0,0,0,0,0,0,0,0,0,0,0,0,0,0,0,0,0,0,0,0,0,0,0,0],"id":33,"left_children":[1,3,5,7,9,11,13,15,17,19,21,23,-1,25,27,-1,-1,-1,-1,-1,-1,-1,-1,-1,-1,-1,-1,-1,-1],"loss_changes":[3.649286E1,2.5249653E1,2.7182053E1,1.7225098E1,1.3588932E1,2.1299572E1,1.9653936E1,8.989059E0,1.7332401E1,6.4113884E0,5.1380486E0,1.3106815E1,0E0,1.97214E1,7.7079277E0,0E0,0E0,0E0,0E0,0E0,0E0,0E0,0E0,0E0,0E0,0E0,0E0,0E0,0E0],"parents":[2147483647,0,0,1,1,2,2,3,3,4,4,5,5,6,6,7,7,8,8,9,9,10,10,11,11,13,13,14,14],"right_children":[2,4,6,8,10,12,14,16,18,20,22,24,-1,26,28,-1,-1,-1,-1,-1,-1,-1,-1,-1,-1,-1,-1,-1,-1],"split_conditions":[3.793E3,4E1,5.7E1,1.51E1,9.2E1,8.942424E1,1E0,7.24E1,1.33E2,1.15E1,1.5319692E3,4.28347E-3,1.5378286E-1,5E0,4.62E1,-3.1457216E-2,-1.2830049E-2,2.4415074E-2,-7.152325E-3,1.2841041E-1,-2.0365086E-3,-1.7843159E-2,7.413775E-2,7.9050854E-2,1.850952E-2,-2.036958E-2,8.644582E-3,-2.027126E-2,2.2034547E-3],"split_indices":[36,31,25,48,33,0,24,30,47,46,5,13,0,18,26,0,0,0,0,0,0,0,0,0,0,0,0,0,0],"split_type":[0,0,0,0,0,0,0,0,0,0,0,0,0,0,0,0,0,0,0,0,0,0,0,0,0,0,0,0,0],"sum_hessian":[1.7680989E3,6.989639E2,1.0691349E3,6.867623E2,1.2201635E1,1.5435071E2,9.1478424E2,2.9139413E2,3.9536816E2,5.969699E0,6.2319365E0,1.5216116E2,2.1895463E0,7.457294E2,1.6905489E2,9.872975E1,1.9266438E2,4.8712814E1,3.4665536E2,4.8850436E0,1.0846554E0,5.218117E0,1.0138189E0,8.685091E0,1.4347606E2,6.3109383E1,6.8262E2,1.11642525E2,5.7412354E1],"tree_param":{"num_deleted":"0","num_feature":"51","num_nodes":"29","size_leaf_vector":"1"}},{"base_weights":[7.153132E-3,-1.3710977E-1,1.3140664E-1,-6.6869274E-2,-5.7699245E-1,5.5159226E-2,4.291834E-1,4.2650253E-2,-3.0474567E-1,-6.001914E-1,4.714844E-2,1.1943277E-1,-2.172827E-1,8.8418037E-1,2.000271E-1,1.4381075E-2,-5.399579E-3,-1.7361935E-2,7.846106E-2,-3.4360696E-2,-6.3883453E-3,1.4848969E-2,-1.1957049E-3,-1.6027888E-2,3.1010348E-2,7.937844E-2,2.4513638E-2,6.1362395E-3,6.5888956E-2],"categories":[],"categories_nodes":[],"categories_segments":[],"categories_sizes":[],"default_left":[0,0,0,0,0,0,0,0,0,0,0,0,0,0,0,0,0,0,0,0,0,0,0,0,0,0,0,0,0],"id":34,"left_children":[1,3,5,7,9,11,13,15,17,19,-1,21,23,25,27,-1,-1,-1,-1,-1,-1,-1,-1,-1,-1,-1,-1,-1,-1],"loss_changes":[3.1281559E1,2.491313E1,2.1263166E1,1.8184275E1,4.482277E0,1.3116557E1,1.9735638E1,1.7688465E1,1.8064768E1,4.434719E0,0E0,1.5418004E1,1.2571833E1,1.6864315E1,1.0924286E1,0E0,0E0,0E0,0E0,0E0,0E0,0E0,0E0,0E0,0E0,0E0,0E0,0E0,0E0],"parents":[2147483647,0,0,1,1,2,2,3,3,4,4,5,5,6,6,7,7,8,8,9,9,11,11,12,12,13,13,14,14],"right_children":[2,4,6,8,10,12,14,16,18,20,-1,22,24,26,28,-1,-1,-1,-1,-1,-1,-1,-1,-1,-1,-1,-1,-1,-1],"split_conditions":[3.1E1,2.19E2,1.48E2,6E-1,2.3327544E3,1.021E2,2E-1,8E-1,1.2E1,3.1E1,4.714844E-2,3.16E1,1.27E2,4.525E1,6.8E0,1.4381075E-2,-5.399579E-3,-1.7361935E-2,7.846106E-2,-3.4360696E-2,-6.3883453E-3,1.4848969E-2,-1.1957049E-3,-1.6027888E-2,3.1010348E-2,7.937844E-2,2.4513638E-2,6.1362395E-3,6.5888956E-2],"split_indices":[38,27,30,23,5,25,21,21,18,31,0,44,20,0,37,0,0,0,0,0,0,0,0,0,0,0,0,0,0],"split_type":[0,0,0,0,0,0,0,0,0,0,0,0,0,0,0,0,0,0,0,0,0,0,0,0,0,0,0,0,0],"sum_hessian":[1.7431139E3,8.065621E2,9.365518E2,6.964973E2,1.10064735E2,7.465729E2,1.8997893E2,4.7748257E2,2.1901474E2,1.0900612E2,1.058619E0,6.045186E2,1.4205429E2,6.267579E1,1.2730315E2,1.8146992E2,2.9601266E2,2.1495525E2,4.0594974E0,9.166618E1,1.7339931E1,2.6956677E2,3.349518E2,1.2700938E2,1.5044922E1,2.141155E1,4.126424E1,1.2010653E2,7.196619E0],"tree_param":{"num_deleted":"0","num_feature":"51","num_nodes":"29","size_leaf_vector":"1"}},{"base_weights":[1.3820446E-2,-9.624645E-2,1.7823921E-1,1.24498606E-1,-1.9418213E-1,-2.4575126E-1,2.4374878E-1,2.4596784E-1,-3.5364944E-1,3.3630725E-2,-3.1849065E-1,-3.1454363E-1,6.06705E-1,3.790497E-1,1.2580049E-2,2.3904057E-2,-1.863893E-3,-2.5329322E-2,1.0665654E-2,1.892422E-2,-4.505789E-3,-8.052971E-3,-2.3210786E-2,-1.9304097E-2,2.9471103E-2,7.692407E-2,-9.381213E-3,1.5419184E-2,5.4053325E-2,-1.8069905E-3,7.661115E-2],"categories":[],"categories_nodes":[],"categories_segments":[],"categories_sizes":[],"default_left":[0,0,0,0,0,0,0,0,0,0,0,0,0,0,0,0,0,0,0,0,0,0,0,0,0,0,0,0,0,0,0],"id":35,"left_children":[1,3,5,7,9,11,13,15,17,19,21,23,25,27,29,-1,-1,-1,-1,-1,-1,-1,-1,-1,-1,-1,-1,-1,-1,-1,-1],"loss_changes":[3.20154E1,2.2935373E1,1.9762823E1,1.9038395E1,2.0810612E1,5.7872043E0,1.9228706E1,1.7163221E1,5.8751764E0,1.1137887E1,1.0829098E1,5.9807253E0,5.8157225E0,1.8908104E1,1.6940807E1,0E0,0E0,0E0,0E0,0E0,0E0,0E0,0E0,0E0,0E0,0E0,0E0,0E0,0E0,0E0,0E0],"parents":[2147483647,0,0,1,1,2,2,3,3,4,4,5,5,6,6,7,7,8,8,9,9,10,10,11,11,12,12,13,13,14,14],"right_children":[2,4,6,8,10,12,14,16,18,20,22,24,26,28,30,-1,-1,-1,-1,-1,-1,-1,-1,-1,-1,-1,-1,-1,-1,-1,-1],"split_conditions":[3.9E1,8E-1,5.5555556E-2,6E-1,9.9E1,1.11E2,1.3333334E-1,1E0,5.94E1,3.09E1,7.6E1,3.95E2,5.3E0,6.5E0,3.38E1,2.3904057E-2,-1.863893E-3,-2.5329322E-2,1.0665654E-2,1.892422E-2,-4.505789E-3,-8.052971E-3,-2.3210786E-2,-1.9304097E-2,2.9471103E-2,7.692407E-2,-9.381213E-3,1.5419184E-2,5.4053325E-2,-1.8069905E-3,7.661115E-2],"split_indices":[38,21,11,23,33,33,6,22,26,41,27,47,46,37,43,0,0,0,0,0,0,0,0,0,0,0,0,0,0,0,0],"split_type":[0,0,0,0,0,0,0,0,0,0,0,0,0,0,0,0,0,0,0,0,0,0,0,0,0,0,0,0,0,0,0],"sum_hessian":[1.7671455E3,1.0587805E3,7.0836505E2,3.2529678E2,7.334837E2,9.443198E1,6.139331E2,2.5978604E2,6.5510735E1,2.5919742E2,4.742863E2,8.7964355E1,6.467622E0,3.8686496E2,2.2706815E2,1.4240257E2,1.17383484E2,5.1677364E1,1.3833372E1,6.790444E1,1.9129297E2,2.2899803E2,2.4528825E2,8.20444E1,5.9199505E0,2.5451913E0,3.9224303E0,3.5279172E2,3.407324E1,2.2096036E2,6.1077867E0],"tree_param":{"num_deleted":"0","num_feature":"51","num_nodes":"31","size_leaf_vector":"1"}},{"base_weights":[-1.9959202E-4,-2.9427996E-1,6.609325E-2,-3.7334597E-1,2.0494716E-1,2.2217293E-1,-5.569262E-2,-3.9209548E-1,1.0496312E0,1.5253277E0,-2.7736733E-2,3.567903E-1,3.922752E-2,2.668268E-2,-3.118568E-1,-2.1022685E-2,2.9418308E-2,1.081782E-1,-2.8943969E-2,-3.369985E-2,1.32174E-1,3.6034685E-2,-1.0874546E-2,9.341959E-3,2.669389E-2,-7.285102E-5,5.3639483E-2,7.431444E-2,5.068168E-4,8.156245E-3,-1.9633798E-2],"categories":[],"categories_nodes":[],"categories_segments":[],"categories_sizes":[],"default_left":[0,0,0,0,0,0,0,0,0,0,0,0,0,0,0,0,0,0,0,0,0,0,0,0,0,0,0,0,0,0,0],"id":36,"left_children":[1,3,5,7,9,11,13,15,17,19,21,23,25,27,29,-1,-1,-1,-1,-1,-1,-1,-1,-1,-1,-1,-1,-1,-1,-1,-1],"loss_changes":[3.4232563E1,1.2826469E1,2.7249685E1,7.8607635E0,1.3809028E1,1.5457928E1,1.700951E1,7.929714E0,8.332662E0,1.8335049E1,5.706477E0,1.0788986E1,1.1247292E1,1.473067E1,7.592703E0,0E0,0E0,0E0,0E0,0E0,0E0,0E0,0E0,0E0,0E0,0E0,0E0,0E0,0E0,0E0,0E0],"parents":[2147483647,0,0,1,1,2,2,3,3,4,4,5,5,6,6,7,7,8,8,9,9,10,10,11,11,12,12,13,13,14,14],"right_children":[2,4,6,8,10,12,14,16,18,20,22,24,26,28,30,-1,-1,-1,-1,-1,-1,-1,-1,-1,-1,-1,-1,-1,-1,-1,-1],"split_conditions":[6E0,3E0,3.4E0,3.5E1,2E1,3.2E1,1.4E2,4E1,1.4273848E-1,8.9427155E2,9.266157E-1,2.4E1,4.515E4,2.2034721E0,3.8259745E-2,-2.1022685E-2,2.9418308E-2,1.081782E-1,-2.8943969E-2,-3.369985E-2,1.32174E-1,3.6034685E-2,-1.0874546E-2,9.341959E-3,2.669389E-2,-7.285102E-5,5.3639483E-2,7.431444E-2,5.068168E-4,8.156245E-3,-1.9633798E-2],"split_indices":[18,16,29,43,31,44,27,31,13,5,3,31,36,50,13,0,0,0,0,0,0,0,0,0,0,0,0,0,0,0,0],"split_type":[0,0,0,0,0,0,0,0,0,0,0,0,0,0,0,0,0,0,0,0,0,0,0,0,0,0,0,0,0,0,0],"sum_hessian":[1.7539303E3,3.220135E2,1.4319167E3,2.782045E2,4.380898E1,6.2723444E2,8.046823E2,2.753015E2,2.9029882E0,5.7312493E0,3.807773E1,3.607974E2,2.6643707E2,6.095604E2,1.9512189E2,2.681178E2,7.1836987E0,1.5287439E0,1.3742442E0,2.0655954E0,3.6656542E0,7.1355557E0,3.0942175E1,1.8515701E2,1.7564037E2,2.5730716E2,9.1299E0,5.8369684E0,6.0372345E2,2.8224627E1,1.6689726E2],"tree_param":{"num_deleted":"0","num_feature":"51","num_nodes":"31","size_leaf_vector":"1"}},{"base_weights":[9.766176E-3,9.101083E-2,-2.2755076E-1,-1.1858938E-2,2.8472272E-1,-5.461214E-1,-1.3028464E-1,-4.9664494E-2,5.0623435E-1,7.4898696E-1,1.9484615E-1,-7.207983E-1,-1.4960396E-1,1.7256174E-2,-3.6708742E-1,4.6733953E-3,-1.0807189E-2,1.2029694E-2,7.490804E-2,-9.3544E-5,5.2764636E-2,-2.1783564E-2,1.26080355E-2,-3.721618E-2,1.7164698E-2,-1.4283853E-2,6.189561E-2,3.0485665E-2,-3.4047754E-3,1.3182687E-3,-2.4497448E-2],"categories":[],"categories_nodes":[],"categories_segments":[],"categories_sizes":[],"default_left":[0,0,0,0,0,0,0,0,0,0,0,0,0,0,0,0,0,0,0,0,0,0,0,0,0,0,0,0,0,0,0],"id":37,"left_children":[1,3,5,7,9,11,13,15,17,19,21,23,25,27,29,-1,-1,-1,-1,-1,-1,-1,-1,-1,-1,-1,-1,-1,-1,-1,-1],"loss_changes":[3.3561443E1,2.5841902E1,1.3685015E1,1.6632147E1,1.8622047E1,7.0627403E0,1.1934831E1,1.887137E1,1.4856711E1,1.6699291E1,1.377669E1,2.0480347E0,6.569378E0,1.0726906E1,6.350687E0,0E0,0E0,0E0,0E0,0E0,0E0,0E0,0E0,0E0,0E0,0E0,0E0,0E0,0E0,0E0,0E0],"parents":[2147483647,0,0,1,1,2,2,3,3,4,4,5,5,6,6,7,7,8,8,9,9,10,10,11,11,12,12,13,13,14,14],"right_children":[2,4,6,8,10,12,14,16,18,20,22,24,26,28,30,-1,-1,-1,-1,-1,-1,-1,-1,-1,-1,-1,-1,-1,-1,-1,-1],"split_conditions":[6E-1,9E0,6E0,6.5E0,1.2E0,1.1354167E1,3.66E0,2E0,3.3366684E1,1.07E2,5.3E1,3.52E1,8.4E1,1.36E2,8.572178E-2,4.6733953E-3,-1.0807189E-2,1.2029694E-2,7.490804E-2,-9.3544E-5,5.2764636E-2,-2.1783564E-2,1.26080355E-2,-3.721618E-2,1.7164698E-2,-1.4283853E-2,6.189561E-2,3.0485665E-2,-3.4047754E-3,1.3182687E-3,-2.4497448E-2],"split_indices":[23,18,18,37,34,2,29,20,11,35,30,43,26,47,13,0,0,0,0,0,0,0,0,0,0,0,0,0,0,0,0],"split_type":[0,0,0,0,0,0,0,0,0,0,0,0,0,0,0,0,0,0,0,0,0,0,0,0,0,0,0,0,0,0,0],"sum_hessian":[1.7385986E3,1.2956528E3,4.429459E2,8.4686694E2,4.4878586E2,1.0252766E2,3.404182E2,7.901159E2,5.675106E1,7.159953E1,3.771863E2,7.0605965E1,3.1921696E1,2.103106E2,1.3010764E2,4.2508386E2,3.65032E2,4.574341E1,1.100765E1,2.103344E1,5.0566097E1,3.08795E1,3.4630682E2,6.937276E1,1.2332028E0,2.9793926E1,2.127768E0,2.5709314E1,1.8460129E2,3.1147146E1,9.896048E1],"tree_param":{"num_deleted":"0","num_feature":"51","num_nodes":"31","size_leaf_vector":"1"}},{"base_weights":[8.847224E-5,-1.2352174E-1,1.2337167E-1,-3.9530823E-1,-3.5106175E-2,2.04523E-1,-1.5360194E-1,-4.4633776E-1,6.854475E-1,-1.8704696E-1,9.535973E-2,5.363486E-1,1.4291951E-1,-4.0878096E-1,6.830449E-2,-1.6021596E-2,-3.693429E-2,1.109336E-1,1.2639553E-4,-1.3539095E-2,1.2648582E-2,-1.8836412E-3,2.4557834E-2,4.1182775E-2,-1.8715052E-3,3.609772E-2,4.591537E-3,-2.3306383E-2,4.7038857E-2,-1.0361308E-2,2.6478827E-2],"categories":[],"categories_nodes":[],"categories_segments":[],"categories_sizes":[],"default_left":[0,0,0,0,0,0,0,0,0,0,0,0,0,0,0,0,0,0,0,0,0,0,0,0,0,0,0,0,0,0,0],"id":38,"left_children":[1,3,5,7,9,11,13,15,17,19,21,23,25,27,29,-1,-1,-1,-1,-1,-1,-1,-1,-1,-1,-1,-1,-1,-1,-1,-1],"loss_changes":[2.6735748E1,2.1037727E1,1.9774399E1,1.2159908E1,1.3142924E1,1.3818771E1,1.133106E1,7.3404083E0,1.0554546E1,1.1351115E1,1.8810257E1,1.7517267E1,1.6934206E1,7.6351147E0,1.3788021E1,0E0,0E0,0E0,0E0,0E0,0E0,0E0,0E0,0E0,0E0,0E0,0E0,0E0,0E0,0E0,0E0],"parents":[2147483647,0,0,1,1,2,2,3,3,4,4,5,5,6,6,7,7,8,8,9,9,10,10,11,11,12,12,13,13,14,14],"right_children":[2,4,6,8,10,12,14,16,18,20,22,24,26,28,30,-1,-1,-1,-1,-1,-1,-1,-1,-1,-1,-1,-1,-1,-1,-1,-1],"split_conditions":[8E0,1.43E1,1E0,3.6936806E1,1E0,1.2E1,2.3E1,1.4E2,2.91E1,1.56E2,1.2225806E1,1.04E2,2.68E0,7.6E0,4.7E0,-1.6021596E-2,-3.693429E-2,1.109336E-1,1.2639553E-4,-1.3539095E-2,1.2648582E-2,-1.8836412E-3,2.4557834E-2,4.1182775E-2,-1.8715052E-3,3.609772E-2,4.591537E-3,-2.3306383E-2,4.7038857E-2,-1.0361308E-2,2.6478827E-2],"split_indices":[18,48,24,50,19,28,31,27,43,30,2,33,29,37,37,0,0,0,0,0,0,0,0,0,0,0,0,0,0,0,0],"split_type":[0,0,0,0,0,0,0,0,0,0,0,0,0,0,0,0,0,0,0,0,0,0,0,0,0,0,0,0,0,0,0],"sum_hessian":[1.7524222E3,8.7504956E2,8.773726E2,2.1393855E2,6.61111E2,6.787618E2,1.9861086E2,2.0485312E2,9.085443E0,3.0521893E2,3.558921E2,1.05074455E2,5.736873E2,9.198803E1,1.06622826E2,1.4465181E2,6.02013E1,2.106756E0,6.978687E0,2.5674527E2,4.8473667E1,2.6704095E2,8.885115E1,6.972548E1,3.5348972E1,4.5448395E1,5.282389E2,8.886645E1,3.1215887E0,6.709554E1,3.9527283E1],"tree_param":{"num_deleted":"0","num_feature":"51","num_nodes":"31","size_leaf_vector":"1"}},{"base_weights":[-8.652013E-3,-2.4148116E-1,5.307663E-2,-4.457133E-1,-1.0224964E-1,-2.0894306E-2,2.2093704E-1,-4.6923393E-1,7.126524E-2,2.6318365E-1,-1.9127375E-1,1.878394E-1,-1.17396034E-1,3.018122E-1,-3.218299E-1,-1.7553648E-2,-3.867861E-2,7.494437E-2,6.200198E-4,-3.824203E-3,-3.932146E-2,1.6666837E-2,-1.0473104E-2,7.825369E-4,-1.3022489E-2,1.3665462E-2,8.563592E-2,-1.9567784E-2,5.050766E-2],"categories":[],"categories_nodes":[],"categories_segments":[],"categories_sizes":[],"default_left":[0,0,0,0,0,0,0,0,0,0,0,0,0,0,0,0,0,0,0,0,0,0,0,0,0,0,0,0,0],"id":39,"left_children":[1,3,5,7,9,11,13,15,-1,17,19,21,23,25,27,-1,-1,-1,-1,-1,-1,-1,-1,-1,-1,-1,-1,-1,-1],"loss_changes":[2.4768753E1,1.0223938E1,1.6920431E1,7.098461E0,7.0788584E0,1.9088346E1,1.83929E1,4.9442616E0,0E0,1.32270565E1,1.1847923E1,1.739077E1,1.2335478E1,1.4140419E1,5.4456353E0,0E0,0E0,0E0,0E0,0E0,0E0,0E0,0E0,0E0,0E0,0E0,0E0,0E0,0E0],"parents":[2147483647,0,0,1,1,2,2,3,3,4,4,5,5,6,6,7,7,9,9,10,10,11,11,12,12,13,13,14,14],"right_children":[2,4,6,8,10,12,14,16,-1,18,20,22,24,26,28,-1,-1,-1,-1,-1,-1,-1,-1,-1,-1,-1,-1,-1,-1],"split_conditions":[1.43E1,7E0,9.6E1,7.0606346E1,4E0,9.7E1,1.4E0,9.2895645E1,7.126524E-2,4.2287152E-2,1.027E2,1.0450293E0,3.5E0,1.13E2,6.169272E-1,-1.7553648E-2,-3.867861E-2,7.494437E-2,6.200198E-4,-3.824203E-3,-3.932146E-2,1.6666837E-2,-1.0473104E-2,7.825369E-4,-1.3022489E-2,1.3665462E-2,8.563592E-2,-1.9567784E-2,5.050766E-2],"split_indices":[48,18,45,12,37,33,49,25,0,9,25,6,29,33,8,0,0,0,0,0,0,0,0,0,0,0,0,0,0],"split_type":[0,0,0,0,0,0,0,0,0,0,0,0,0,0,0,0,0,0,0,0,0,0,0,0,0,0,0,0,0],"sum_hessian":[1.7214844E3,3.601505E2,1.3613339E3,1.4510362E2,2.1504689E2,9.4553925E2,4.1579462E2,1.4404207E2,1.0615476E0,4.1742527E1,1.7330437E2,2.9863776E2,6.469014E2,3.622599E2,5.353472E1,1.0530887E2,3.8733196E1,6.2026935E0,3.5539833E1,1.4622916E2,2.7075214E1,2.187057E2,7.993207E1,3.3563528E2,3.1126617E2,3.5625653E2,6.0033503E0,5.1550137E1,1.9845867E0],"tree_param":{"num_deleted":"0","num_feature":"51","num_nodes":"29","size_leaf_vector":"1"}},{"base_weights":[-1.9459701E-3,1.7420837E-1,-8.652816E-2,2.6257795E-1,-2.793542E-1,-1.9542333E-1,7.3667586E-2,4.7496203E-1,2.6345816E-2,-3.5167092E-1,1.2156925E0,3.8525847E-1,-2.3182389E-1,1.6567667E-1,-2.9363215E-1,1.3070072E-2,4.4163357E-2,-1.2033981E-3,3.2401808E-2,-2.4653843E-2,9.136644E-3,1.1260324E-1,-2.9496748E-2,-5.4789484E-3,5.1853675E-2,5.0211247E-2,-1.2565059E-2,2.0368723E-2,-9.630453E-4,-1.8470842E-2,3.7252028E-2],"categories":[],"categories_nodes":[],"categories_segments":[],"categories_sizes":[],"default_left":[0,0,0,0,0,0,0,0,0,0,0,0,0,0,0,0,0,0,0,0,0,0,0,0,0,0,0,0,0,0,0],"id":40,"left_children":[1,3,5,7,9,11,13,15,17,19,21,23,25,27,29,-1,-1,-1,-1,-1,-1,-1,-1,-1,-1,-1,-1,-1,-1,-1,-1],"loss_changes":[2.604419E1,2.2801203E1,2.0615192E1,2.382402E1,1.0476904E1,1.4955227E1,1.6223665E1,2.1578838E1,7.0981846E0,6.848613E0,9.773691E0,1.3616079E1,1.6200642E1,1.7144732E1,7.8507147E0,0E0,0E0,0E0,0E0,0E0,0E0,0E0,0E0,0E0,0E0,0E0,0E0,0E0,0E0,0E0,0E0],"parents":[2147483647,0,0,1,1,2,2,3,3,4,4,5,5,6,6,7,7,8,8,9,9,10,10,11,11,12,12,13,13,14,14],"right_children":[2,4,6,8,10,12,14,16,18,20,22,24,26,28,30,-1,-1,-1,-1,-1,-1,-1,-1,-1,-1,-1,-1,-1,-1,-1,-1],"split_conditions":[1E0,6E-1,3.8E1,1E0,5.3E0,5.0212635E1,1.021E2,9E0,4.6E1,9.7E1,8.7497894E1,2.3E1,6.8E1,3.16E1,2.9222E4,1.3070072E-2,4.4163357E-2,-1.2033981E-3,3.2401808E-2,-2.4653843E-2,9.136644E-3,1.1260324E-1,-2.9496748E-2,-5.4789484E-3,5.1853675E-2,5.0211247E-2,-1.2565059E-2,2.0368723E-2,-9.630453E-4,-1.8470842E-2,3.7252028E-2],"split_indices":[21,23,38,22,40,25,25,32,17,45,25,38,47,44,36,0,0,0,0,0,0,0,0,0,0,0,0,0,0,0,0],"split_type":[0,0,0,0,0,0,0,0,0,0,0,0,0,0,0,0,0,0,0,0,0,0,0,0,0,0,0,0,0,0,0],"sum_hessian":[1.7459767E3,5.6604614E2,1.1799305E3,4.7409686E2,9.194928E1,7.0230774E2,4.7762286E2,2.4911757E2,2.249793E2,8.843632E1,3.5129642E0,4.0862507E1,6.614452E2,3.8238406E2,9.523879E1,1.6464276E2,8.447481E1,2.0899303E2,1.5986265E1,6.999312E1,1.8443197E1,2.0748303E0,1.4381338E0,2.3701195E1,1.7161312E1,9.476829E0,6.519684E2,1.6523418E2,2.171499E2,8.936294E1,5.8758526E0],"tree_param":{"num_deleted":"0","num_feature":"51","num_nodes":"31","size_leaf_vector":"1"}},{"base_weights":[-5.846891E-3,-9.1832705E-2,1.598399E-1,-3.3635664E-1,-3.2868795E-2,5.8042175E-1,7.496668E-2,3.075178E-2,-4.767926E-1,1.4253819E-1,-1.2141899E-1,4.6686938E-1,3.1256735E0,3.311945E-1,-2.7149545E-3,-1.776339E-2,2.8247515E-2,-2.0857689E-3,-3.1355795E-2,1.03095835E-2,-2.4267826E-2,-7.3263044E-3,2.7467405E-2,-5.4173586E-3,3.44564E-2,3.634739E-2,1.9959967E-1,-3.8369875E-2,2.0738607E-2,2.5652329E-2,-3.0878335E-3],"categories":[],"categories_nodes":[],"categories_segments":[],"categories_sizes":[],"default_left":[0,0,0,0,0,0,0,0,0,0,0,0,0,0,0,0,0,0,0,0,0,0,0,0,0,0,0,0,0,0,0],"id":41,"left_children":[1,3,5,7,9,11,13,15,17,19,21,23,25,27,29,-1,-1,-1,-1,-1,-1,-1,-1,-1,-1,-1,-1,-1,-1,-1,-1],"loss_changes":[2.5015236E1,1.6655014E1,2.1371147E1,1.1587339E1,1.4500307E1,2.7612068E1,9.95955E0,1.3202311E1,1.0596565E1,1.2620676E1,1.0524862E1,1.2535376E1,5.66016E0,1.1006445E1,1.1753148E1,0E0,0E0,0E0,0E0,0E0,0E0,0E0,0E0,0E0,0E0,0E0,0E0,0E0,0E0,0E0,0E0],"parents":[2147483647,0,0,1,1,2,2,3,3,4,4,5,5,6,6,7,7,8,8,9,9,10,10,11,11,12,12,13,13,14,14],"right_children":[2,4,6,8,10,12,14,16,18,20,22,24,26,28,30,-1,-1,-1,-1,-1,-1,-1,-1,-1,-1,-1,-1,-1,-1,-1,-1],"split_conditions":[9E0,1.41E1,1.2E0,6.445542E1,7.560132E-2,4.8E1,1.09E2,7.419E3,2E-1,9.7E0,1.39E1,1.1E2,1.5158439E0,2.77E1,2.72E0,-1.776339E-2,2.8247515E-2,-2.0857689E-3,-3.1355795E-2,1.03095835E-2,-2.4267826E-2,-7.3263044E-3,2.7467405E-2,-5.4173586E-3,3.44564E-2,3.634739E-2,1.9959967E-1,-3.8369875E-2,2.0738607E-2,2.5652329E-2,-3.0878335E-3],"split_indices":[18,48,34,25,13,38,35,36,21,32,46,35,11,44,29,0,0,0,0,0,0,0,0,0,0,0,0,0,0,0,0],"split_type":[0,0,0,0,0,0,0,0,0,0,0,0,0,0,0,0,0,0,0,0,0,0,0,0,0,0,0,0,0,0,0],"sum_hessian":[1.7538296E3,1.1549141E3,5.989154E2,2.2347144E2,9.314427E2,9.9586174E1,4.9932925E2,6.204997E1,1.6142146E2,3.1226822E2,6.1917444E2,9.646593E1,3.1202457E0,1.15406136E2,3.8392313E2,3.6215252E1,2.5834715E1,4.1778984E1,1.1964248E2,2.8413535E2,2.8132895E1,5.97588E2,2.1586418E1,2.702817E1,6.943776E1,1.3158768E0,1.8043689E0,7.5806017E0,1.0782554E2,3.8645355E1,3.4527777E2],"tree_param":{"num_deleted":"0","num_feature":"51","num_nodes":"31","size_leaf_vector":"1"}},{"base_weights":[8.680825E-3,1.0338632E-1,-1.6201808E-1,-3.8822395E-1,1.4034358E-1,-4.7002575E-1,-4.7631823E-2,-5.042226E-2,-5.911931E-1,2.247546E-2,3.1059214E-1,-6.6533405E-1,-2.089625E-1,-2.2151488E-1,1.3876913E-1,2.516673E-2,-3.895765E-2,-4.121094E-2,-2.5313406E-3,-3.4366353E-4,4.477149E-2,4.975464E-2,1.1693041E-2,-3.5055738E-2,3.5044E-2,-1.6793935E-2,4.29386E-2,-1.220911E-2,7.4516006E-2,1.6582746E-2,-1.0307847E-2],"categories":[],"categories_nodes":[],"categories_segments":[],"categories_sizes":[],"default_left":[0,0,0,0,0,0,0,0,0,0,0,0,0,0,0,0,0,0,0,0,0,0,0,0,0,0,0,0,0,0,0],"id":42,"left_children":[1,3,5,7,9,11,13,15,17,19,21,23,25,27,29,-1,-1,-1,-1,-1,-1,-1,-1,-1,-1,-1,-1,-1,-1,-1,-1],"loss_changes":[2.810519E1,2.0368797E1,2.1834929E1,5.3484917E0,2.0875805E1,8.421341E0,1.47294E1,1.2714429E1,6.1189327E0,1.5788267E1,2.2123768E1,5.1638603E0,1.022263E1,9.4829645E0,1.4670937E1,0E0,0E0,0E0,0E0,0E0,0E0,0E0,0E0,0E0,0E0,0E0,0E0,0E0,0E0,0E0,0E0],"parents":[2147483647,0,0,1,1,2,2,3,3,4,4,5,5,6,6,7,7,8,8,9,9,10,10,11,11,12,12,13,13,14,14],"right_children":[2,4,6,8,10,12,14,16,18,20,22,24,26,28,30,-1,-1,-1,-1,-1,-1,-1,-1,-1,-1,-1,-1,-1,-1,-1,-1],"split_conditions":[8.681751E1,5E0,1.47E1,2.89E1,2.5429063E0,1.1459459E1,3.7E1,7.343655E1,3.16E1,1.3E1,5.9895835E0,5.1718258E1,6.4872536E1,1.5E1,1.35E0,2.516673E-2,-3.895765E-2,-4.121094E-2,-2.5313406E-3,-3.4366353E-4,4.477149E-2,4.975464E-2,1.1693041E-2,-3.5055738E-2,3.5044E-2,-1.6793935E-2,4.29386E-2,-1.220911E-2,7.4516006E-2,1.6582746E-2,-1.0307847E-2],"split_indices":[25,18,48,43,3,2,38,25,43,18,50,6,14,18,6,0,0,0,0,0,0,0,0,0,0,0,0,0,0,0,0],"split_type":[0,0,0,0,0,0,0,0,0,0,0,0,0,0,0,0,0,0,0,0,0,0,0,0,0,0,0,0,0,0,0],"sum_hessian":[1.7364874E3,1.117102E3,6.193853E2,7.744283E1,1.0396593E3,1.6689049E2,4.5249484E2,2.9535421E1,4.790741E1,6.1500507E2,4.246542E2,9.4582375E1,7.230811E1,2.3401082E2,2.1848404E2,1.6958267E1,1.2577155E1,3.3109806E1,1.4797606E1,5.95961E2,1.9044088E1,4.159826E1,3.8305597E2,9.264291E1,1.9394703E0,6.523892E1,7.069191E0,2.3179881E2,2.2120142E0,1.401496E2,7.833444E1],"tree_param":{"num_deleted":"0","num_feature":"51","num_nodes":"31","size_leaf_vector":"1"}},{"base_weights":[6.4619714E-3,-2.197588E-1,7.0617154E-2,-3.1926823E-1,4.8906736E-2,2.4633463E-1,-1.988538E-3,-3.403011E-1,1.05433166E-1,-2.2430381E-1,3.28752E-1,1.5062855E-1,5.818475E-1,8.607206E-2,-1.554321E-1,-1.3158415E-2,-3.372703E-2,-3.2660473E-2,4.5489273E-3,4.1218527E-2,-3.5073764E-3,1.44432E-3,2.722532E-2,4.996387E-2,1.0428386E-2,-2.0247959E-3,1.1318116E-2,-9.755069E-3,2.4428759E-2],"categories":[],"categories_nodes":[],"categories_segments":[],"categories_sizes":[],"default_left":[0,0,0,0,0,0,0,0,0,0,0,0,0,0,0,0,0,0,0,0,0,0,0,0,0,0,0,0,0],"id":43,"left_children":[1,3,5,7,9,11,13,15,-1,17,19,21,23,25,27,-1,-1,-1,-1,-1,-1,-1,-1,-1,-1,-1,-1,-1,-1],"loss_changes":[2.5503801E1,1.03955765E1,1.7465704E1,1.5192476E1,8.163193E0,1.2765196E1,1.3116078E1,7.0895653E0,0E0,7.379401E0,1.0471407E1,1.4982567E1,1.3579512E1,1.0960308E1,9.137438E0,0E0,0E0,0E0,0E0,0E0,0E0,0E0,0E0,0E0,0E0,0E0,0E0,0E0,0E0],"parents":[2147483647,0,0,1,1,2,2,3,3,4,4,5,5,6,6,7,7,9,9,10,10,11,11,12,12,13,13,14,14],"right_children":[2,4,6,8,10,12,14,16,-1,18,20,22,24,26,28,-1,-1,-1,-1,-1,-1,-1,-1,-1,-1,-1,-1,-1,-1],"split_conditions":[1.44E1,4E1,5.8138482E-2,7.0606346E1,2.481561E-2,2.8E1,8.8722595E1,1.964E2,1.05433166E-1,2.1E1,1.0168269E0,3.11E1,9E0,1.1282051E1,5.6388104E-1,-1.3158415E-2,-3.372703E-2,-3.2660473E-2,4.5489273E-3,4.1218527E-2,-3.5073764E-3,1.44432E-3,2.722532E-2,4.996387E-2,1.0428386E-2,-2.0247959E-3,1.1318116E-2,-9.755069E-3,2.4428759E-2],"split_indices":[48,38,13,12,15,31,25,27,0,31,12,43,17,2,9,0,0,0,0,0,0,0,0,0,0,0,0,0,0],"split_type":[0,0,0,0,0,0,0,0,0,0,0,0,0,0,0,0,0,0,0,0,0,0,0,0,0,0,0,0,0],"sum_hessian":[1.7552095E3,3.8725723E2,1.3679523E3,2.8245285E2,1.0480438E2,3.992676E2,9.6868463E2,2.8087946E2,1.5733827E0,5.313126E1,5.1673122E1,3.117803E2,8.748732E1,6.1574835E2,3.5293625E2,2.2966646E2,5.1212994E1,2.205548E1,3.1075783E1,2.2567364E1,2.9105759E1,2.389863E2,7.279401E1,4.0509502E1,4.6977818E1,3.2407956E2,2.9166882E2,3.331143E2,1.9821978E1],"tree_param":{"num_deleted":"0","num_feature":"51","num_nodes":"29","size_leaf_vector":"1"}},{"base_weights":[-2.4237331E-2,4.96426E-2,-1.6253501E-1,1.8352732E-1,-6.0628075E-2,1.262896E-1,-2.3505287E-1,1.4474598E-1,7.3495936E-1,2.9112885E-2,-3.4638208E-1,7.694907E-1,-1.4192541E-1,-3.4022656E-1,-5.0546136E-2,3.113995E-5,1.5431441E-2,1.616404E-2,7.9327576E-2,-1.2324592E-3,2.8932674E-2,-2.0138113E-2,2.392814E-2,7.658132E-2,1.3789845E-2,-3.2717507E-2,1.9343402E-3,1.1246118E-2,-1.9081494E-2,-3.8553008E-3,1.00927584E-1],"categories":[],"categories_nodes":[],"categories_segments":[],"categories_sizes":[],"default_left":[0,0,0,0,0,0,0,0,0,0,0,0,0,0,0,0,0,0,0,0,0,0,0,0,0,0,0,0,0,0,0],"id":44,"left_children":[1,3,5,7,9,11,13,15,17,19,21,23,25,27,29,-1,-1,-1,-1,-1,-1,-1,-1,-1,-1,-1,-1,-1,-1,-1,-1],"loss_changes":[1.8076717E1,1.7039738E1,1.2931633E1,1.1039227E1,1.6248804E1,2.1548538E1,9.544146E0,1.15303135E1,1.140696E1,1.4278981E1,7.235285E0,1.3396784E1,8.220324E0,7.425041E0,1.0051118E1,0E0,0E0,0E0,0E0,0E0,0E0,0E0,0E0,0E0,0E0,0E0,0E0,0E0,0E0,0E0,0E0],"parents":[2147483647,0,0,1,1,2,2,3,3,4,4,5,5,6,6,7,7,8,8,9,9,10,10,11,11,12,12,13,13,14,14],"right_children":[2,4,6,8,10,12,14,16,18,20,22,24,26,28,30,-1,-1,-1,-1,-1,-1,-1,-1,-1,-1,-1,-1,-1,-1,-1,-1],"split_conditions":[8.7135025E1,3.4E0,4.6669923E-2,4.9461144E-1,1.36E2,9.5E1,9.4E1,2.4E1,2.62E2,6.94E1,3.3E1,5E1,7.8658957E0,3.5E0,7.677262E-1,3.113995E-5,1.5431441E-2,1.616404E-2,7.9327576E-2,-1.2324592E-3,2.8932674E-2,-2.0138113E-2,2.392814E-2,7.658132E-2,1.3789845E-2,-3.2717507E-2,1.9343402E-3,1.1246118E-2,-1.9081494E-2,-3.8553008E-3,1.00927584E-1],"split_indices":[25,29,13,9,27,33,45,31,47,26,31,38,14,37,9,0,0,0,0,0,0,0,0,0,0,0,0,0,0,0,0],"split_type":[0,0,0,0,0,0,0,0,0,0,0,0,0,0,0,0,0,0,0,0,0,0,0,0,0,0,0,0,0,0,0],"sum_hessian":[1.7674154E3,1.1524219E3,6.149936E2,5.2018134E2,6.3224054E2,1.232743E2,4.917193E2,4.8718115E2,3.3000187E1,4.8182245E2,1.5041808E2,3.572763E1,8.754666E1,3.126542E2,1.790651E2,2.5975186E2,2.2742929E2,2.3176008E1,9.82418E0,4.3975586E2,4.2066586E1,1.4127455E2,9.143526E0,1.3218817E1,2.2508816E1,2.2131948E1,6.541472E1,2.1039248E1,2.9161496E2,1.777462E2,1.3188968E0],"tree_param":{"num_deleted":"0","num_feature":"51","num_nodes":"31","size_leaf_vector":"1"}},{"base_weights":[-8.679421E-3,8.693057E-2,-1.3105838E-1,1.2795244E-1,-2.7963588E-1,-3.6680833E-1,-3.085848E-2,2.0083499E-1,-8.1419334E-2,3.6630473E-1,-4.4070733E-1,-4.5554227E-1,8.448731E-2,5.228945E-1,-7.866059E-2,1.6140735E-2,2.0081766E-3,-6.70004E-3,6.1989445E-2,-1.7014991E-2,6.2085446E-2,6.739238E-3,-3.0145684E-2,3.319424E-2,-2.4818439E-2,-2.2940626E-2,3.8276616E-2,7.191509E-2,1.30254505E-2,-1.0220384E-2,4.5179855E-3],"categories":[],"categories_nodes":[],"categories_segments":[],"categories_sizes":[],"default_left":[0,0,0,0,0,0,0,0,0,0,0,0,0,0,0,0,0,0,0,0,0,0,0,0,0,0,0,0,0,0,0],"id":45,"left_children":[1,3,5,7,9,11,13,15,17,19,21,23,25,27,29,-1,-1,-1,-1,-1,-1,-1,-1,-1,-1,-1,-1,-1,-1,-1,-1],"loss_changes":[2.0626184E1,1.4918192E1,1.825204E1,1.3609261E1,1.055768E1,9.269142E0,1.4431607E1,1.2942825E1,1.6194857E1,1.30967655E1,7.589587E0,9.140339E0,1.4677592E1,1.0032909E1,1.067322E1,0E0,0E0,0E0,0E0,0E0,0E0,0E0,0E0,0E0,0E0,0E0,0E0,0E0,0E0,0E0,0E0],"parents":[2147483647,0,0,1,1,2,2,3,3,4,4,5,5,6,6,7,7,8,8,9,9,10,10,11,11,12,12,13,13,14,14],"right_children":[2,4,6,8,10,12,14,16,18,20,22,24,26,28,30,-1,-1,-1,-1,-1,-1,-1,-1,-1,-1,-1,-1,-1,-1,-1,-1],"split_conditions":[1.21E1,1.126E2,1.9964979E0,1.7142857E0,4.6669923E-2,1.8E1,1E1,6.723E3,8.2E1,1.68E1,1.65E2,1.28E1,1.1627556E3,8.136054E0,5.933E3,1.6140735E-2,2.0081766E-3,-6.70004E-3,6.1989445E-2,-1.7014991E-2,6.2085446E-2,6.739238E-3,-3.0145684E-2,3.319424E-2,-2.4818439E-2,-2.2940626E-2,3.8276616E-2,7.191509E-2,1.30254505E-2,-1.0220384E-2,4.5179855E-3],"split_indices":[42,25,11,6,13,48,28,4,26,48,47,48,5,2,36,0,0,0,0,0,0,0,0,0,0,0,0,0,0,0,0],"split_type":[0,0,0,0,0,0,0,0,0,0,0,0,0,0,0,0,0,0,0,0,0,0,0,0,0,0,0,0,0,0,0],"sum_hessian":[1.76085E3,9.887035E2,7.721465E2,8.897805E2,9.892299E1,2.2950568E2,5.426408E2,6.600553E2,2.2972519E2,1.9489716E1,7.943327E1,1.9178702E2,3.7718662E1,4.2330765E1,5.0031006E2,3.7463107E2,2.8542422E2,2.217967E2,7.9284916E0,1.1122873E1,8.366842E0,1.750309E1,6.1930183E1,6.211514E0,1.855755E2,2.1162617E1,1.6556047E1,8.431925E0,3.3898838E1,2.8675888E2,2.1355116E2],"tree_param":{"num_deleted":"0","num_feature":"51","num_nodes":"31","size_leaf_vector":"1"}},{"base_weights":[-3.5016572E-3,-8.273453E-2,1.4525639E-1,-3.23931E-1,-1.6671795E-2,-4.679705E-1,1.8081288E-1,1.4287008E-1,-4.3724564E-1,4.9536217E-2,-2.585679E-1,-1.9367881E-1,-4.6010148E-2,2.827804E-1,-2.7520228E-2,